-3.162879869341850281e-02,1.800994947552680969e-02,1.562723889946937561e-02,4.401806741952896118e-02,1.537049468606710434e-02,-5.043197423219680786e-03,-4.157942160964012146e-02,4.113849624991416931e-02,-4.704527556896209717e-02,1.666028425097465515e-02,1.063212100416421890e-02,-3.203427186235785484e-03,2.594840154051780701e-02,-6.402842234820127487e-03,-3.720896691083908081e-02,3.754884004592895508e-02,-3.595339506864547729e-02,9.739582310430705547e-04,-5.090306513011455536e-03,-4.313868284225463867e-02,6.201879587024450302e-03,4.434522613883018494e-02,4.110581800341606140e-02,-4.040101170539855957e-02,8.667954243719577789e-03,2.959233894944190979e-02,3.115459904074668884e-02,-3.261661529541015625e-02,3.275257721543312073e-02,-4.456976056098937988e-02,-4.265449941158294678e-02,-3.165898146107792854e-03,5.198654904961585999e-02,2.532170340418815613e-02,-1.770631968975067139e-02,1.082821656018495560e-02,-3.007641807198524475e-02,8.845497854053974152e-03,-3.542365878820419312e-02,-2.505429461598396301e-02
-2.582009416073560715e-03,-9.227443486452102661e-03,-1.524854730814695358e-02,2.841295115649700165e-02,-2.725430205464363098e-02,1.649058237671852112e-02,-5.660293251276016235e-02,-1.179982721805572510e-02,-4.018125683069229126e-02,-1.227032486349344254e-02,4.360899701714515686e-02,4.799815267324447632e-02,7.500520441681146622e-03,3.932592645287513733e-02,-4.830017313361167908e-02,-2.322780713438987732e-02,3.892250731587409973e-02,1.076884381473064423e-02,6.658782251179218292e-03,-3.066147491335868835e-02,-5.002657324075698853e-02,3.115507774055004120e-02,-2.659458108246326447e-02,4.352485015988349915e-02,1.695952937006950378e-02,-2.907550707459449768e-02,-2.992527000606060028e-02,1.662172563374042511e-02,-4.226337373256683350e-02,3.213882818818092346e-02,-4.489939287304878235e-02,-2.195692062377929688e-02,-3.482670709490776062e-02,-4.465696960687637329e-02,2.833464555442333221e-02,-4.549665749073028564e-02,-4.433022066950798035e-02,4.109771177172660828e-02,1.303844852373003960e-03,4.276383668184280396e-03
-5.403462052345275879e-02,2.112491615116596222e-02,5.643390119075775146e-02,5.244463309645652771e-02,-4.733336344361305237e-02,-2.783802524209022522e-02,-4.086508974432945251e-02,3.143169730901718140e-02,5.230714380741119385e-02,5.178912356495857239e-02,5.947197228670120239e-02,-3.259627148509025574e-02,-1.103438902646303177e-03,4.423876851797103882e-02,7.344532757997512817e-03,-2.310154400765895844e-02,4.082705127075314522e-04,-1.284440793097019196e-02,4.759559407830238342e-03,-1.645579189062118530e-02,-3.338611125946044922e-02,4.208239167928695679e-02,-3.051179274916648865e-02,-4.189990088343620300e-02,-6.063802540302276611e-02,5.216447170823812485e-03,5.800293758511543274e-02,-5.343902111053466797e-02,-2.028474770486354828e-02,4.343703761696815491e-02,-3.143038600683212280e-02,-4.102257639169692993e-02,4.431523755192756653e-02,2.609987743198871613e-02,-4.100048914551734924e-02,4.374906420707702637e-02,3.676696494221687317e-02,1.933604362420737743e-03,4.922097921371459961e-02,-6.644584983587265015e-02
-1.412702817469835281e-02,2.669128775596618652e-02,-2.623706497251987457e-02,2.954444848001003265e-02,-2.818877995014190674e-02,-6.801843177527189255e-03,9.580632671713829041e-03,-4.797354340553283691e-03,-7.349782623350620270e-03,-3.179756179451942444e-02,-1.864814758300781250e-02,5.357724148780107498e-03,-3.082256950438022614e-02,-1.895649544894695282e-02,1.778780110180377960e-02,-9.705681353807449341e-03,-1.063657086342573166e-02,-2.301398664712905884e-02,-1.602257974445819855e-02,-9.732436388731002808e-03,-7.183511275798082352e-03,-1.073102559894323349e-02,-7.396061904728412628e-03,-2.037010528147220612e-02,3.918241709470748901e-03,5.419519729912281036e-03,-3.906250372529029846e-02,-2.013980224728584290e-02,2.519542584195733070e-03,1.225554291158914566e-02,-2.669247798621654510e-02,-3.511569648981094360e-02,2.496070042252540588e-02,1.157539896667003632e-02,-2.806478179991245270e-02,2.356431446969509125e-02,-9.087571874260902405e-03,1.909416355192661285e-02,1.244116388261318207e-02,2.764292061328887939e-02
1.063742581754922867e-02,-2.270293049514293671e-02,4.227721318602561951e-02,3.757859766483306885e-02,1.082802657037973404e-02,4.319357126951217651e-02,5.105324089527130127e-02,-4.281498864293098450e-02,-4.013716056942939758e-02,-3.673915192484855652e-02,-1.131488103419542313e-02,1.118088979274034500e-02,3.835861384868621826e-02,1.078214962035417557e-02,-5.586842820048332214e-02,-4.033445566892623901e-02,-6.031226366758346558e-04,2.795293182134628296e-02,4.762236773967742920e-02,1.761090755462646484e-02,4.295450076460838318e-02,-1.327937375754117966e-02,1.945536956191062927e-02,1.264029555022716522e-02,-2.906170673668384552e-02,-2.934638224542140961e-02,2.275160141289234161e-02,1.559437159448862076e-02,-9.094930253922939301e-03,6.582530215382575989e-03,2.136067301034927368e-02,-4.839605465531349182e-02,-2.648196183145046234e-02,-4.097861051559448242e-02,6.052251555956900120e-04,2.816046774387359619e-02,2.282038889825344086e-02,-1.767488382756710052e-02,-1.729336567223072052e-02,3.367326408624649048e-02
-3.163430094718933105e-02,-1.071824040263891220e-02,5.145663022994995117e-02,3.900247160345315933e-03,-3.462092485278844833e-03,5.274352803826332092e-02,1.416080631315708160e-03,1.307838014326989651e-03,-3.664985671639442444e-02,4.584022611379623413e-02,-4.763355106115341187e-02,6.984000792726874352e-04,-4.155210033059120178e-02,3.135426342487335205e-02,-2.700525894761085510e-02,-2.308663353323936462e-02,-2.747982973232865334e-03,3.290461003780364990e-02,4.349343851208686829e-02,1.149422489106655121e-02,5.012690089643001556e-03,3.017256781458854675e-02,4.973793774843215942e-02,4.523756727576255798e-02,3.942398726940155029e-02,1.356722135096788406e-02,3.380972519516944885e-02,-3.192370384931564331e-02,3.227955847978591919e-02,-3.328445181250572205e-02,4.404865950345993042e-02,2.356365323066711426e-03,-1.444440800696611404e-02,5.338349379599094391e-03,1.048244908452033997e-02,-4.186321049928665161e-02,-1.212088973261415958e-03,-2.772983908653259277e-02,-3.551343083381652832e-02,-2.376190759241580963e-02
4.789497703313827515e-02,-4.334312304854393005e-02,1.895927079021930695e-02,3.338786959648132324e-02,-1.541746035218238831e-02,2.763034962117671967e-02,1.141093671321868896e-02,-2.743695676326751709e-02,1.451777480542659760e-02,-1.863791607320308685e-02,3.082958236336708069e-02,-2.847503125667572021e-02,1.035781297832727432e-02,-2.068946324288845062e-02,-3.047624602913856506e-02,-4.752915725111961365e-02,-3.120504878461360931e-02,-3.396638482809066772e-02,3.682494536042213440e-02,-4.536819458007812500e-02,1.814751140773296356e-02,-2.348879724740982056e-02,-2.215581573545932770e-02,2.699874341487884521e-02,5.429130792617797852e-02,-4.394076392054557800e-02,5.144917964935302734e-02,-2.431387268006801605e-02,1.904455386102199554e-02,5.706654861569404602e-03,3.582087159156799316e-02,1.819626241922378540e-02,-2.651605755090713501e-02,6.635337602347135544e-03,-3.953248262405395508e-02,1.567874848842620850e-02,-1.167200505733489990e-02,2.390909940004348755e-02,3.401168808341026306e-02,-4.305852949619293213e-02
-9.290586225688457489e-03,1.431840937584638596e-03,-5.992447957396507263e-03,5.987899377942085266e-03,-4.558329004794359207e-03,1.803686469793319702e-02,-1.490140985697507858e-02,-6.206496153026819229e-03,-8.552886545658111572e-03,7.361345458775758743e-03,-4.650349263101816177e-03,7.140994537621736526e-03,5.500052124261856079e-03,-1.503411587327718735e-02,-2.330372342839837074e-03,-1.153900171630084515e-03,-9.172495454549789429e-03,1.034539937973022461e-02,2.097467146813869476e-02,1.006359793245792389e-02,-1.004068925976753235e-02,6.076350342482328415e-03,-8.479326032102108002e-03,-5.608728970400989056e-04,-1.398467458784580231e-02,-8.749228902161121368e-03,-6.354507640935480595e-04,-8.182977326214313507e-03,-1.838733209297060966e-03,-1.944427145645022392e-03,1.482916763052344322e-03,-6.081552710384130478e-03,1.030109357088804245e-03,-4.274112172424793243e-03,-1.609946973621845245e-02,5.816090386360883713e-03,1.314413966611027718e-04,4.080533981323242188e-03,6.259526126086711884e-04,-1.206144783645868301e-02
5.055101588368415833e-02,-5.717351567000150681e-03,5.581560358405113220e-02,5.974823236465454102e-02,-5.042655766010284424e-02,-2.123666740953922272e-02,-3.987823054194450378e-02,-4.020180180668830872e-02,1.699816621840000153e-02,3.333957493305206299e-02,4.609212279319763184e-02,3.312656655907630920e-03,4.053343087434768677e-02,3.758427500724792480e-02,4.589392989873886108e-02,-3.170184791088104248e-02,4.366271197795867920e-02,5.243182927370071411e-02,-2.982250973582267761e-02,3.613341227173805237e-02,-3.491309657692909241e-02,-3.214118257164955139e-02,3.479724749922752380e-02,-4.670241102576255798e-02,-4.365264251828193665e-02,2.462130226194858551e-02,2.033501490950584412e-02,4.129918664693832397e-02,4.670615121722221375e-02,3.928010165691375732e-02,-4.497685655951499939e-02,5.859686434268951416e-02,4.041950032114982605e-02,4.753186181187629700e-02,4.936884343624114990e-02,2.611607685685157776e-02,2.360046654939651489e-02,2.705633454024791718e-02,-4.187263920903205872e-02,4.765625111758708954e-03
1.291964086703956127e-03,9.193628095090389252e-03,-4.770038649439811707e-02,-5.986060202121734619e-02,5.419603362679481506e-02,3.729919344186782837e-02,-4.183145985007286072e-02,-2.657087985426187515e-03,-4.492536559700965881e-02,-1.264573074877262115e-02,-3.829348459839820862e-02,1.925923861563205719e-02,3.355015814304351807e-02,-6.051187962293624878e-02,-1.206239499151706696e-02,4.974976554512977600e-02,2.296167798340320587e-02,3.604957833886146545e-02,-5.435794591903686523e-02,4.297950491309165955e-02,-1.222810056060552597e-02,1.800600998103618622e-02,2.318705245852470398e-02,2.571984007954597473e-02,4.153207689523696899e-02,3.147008642554283142e-02,-5.052519589662551880e-02,5.514524504542350769e-02,2.354501932859420776e-02,-2.576598338782787323e-02,2.207570895552635193e-02,-4.315562546253204346e-02,-5.542758852243423462e-03,-4.105492681264877319e-02,5.831547453999519348e-02,-6.397146731615066528e-02,6.562269758433103561e-03,1.356484368443489075e-02,-5.111215263605117798e-02,3.740519657731056213e-02
3.903272747993469238e-02,4.255498945713043213e-02,-4.482275620102882385e-02,-4.489086568355560303e-02,4.486548900604248047e-02,3.860163735225796700e-03,3.838398307561874390e-02,4.093277081847190857e-02,-1.336623262614011765e-02,3.381782397627830505e-02,4.918284714221954346e-02,4.042612761259078979e-02,-2.941444329917430878e-02,-4.542453959584236145e-02,2.777189016342163086e-03,6.448091939091682434e-03,7.440490182489156723e-03,-5.426103621721267700e-02,-4.546483978629112244e-02,-3.279759734869003296e-02,-4.229907691478729248e-02,-5.215135961771011353e-02,3.586514294147491455e-02,-3.140157088637351990e-02,2.138920128345489502e-02,-3.179124370217323303e-02,1.772948168218135834e-02,1.447609439492225647e-02,-5.481864511966705322e-02,4.189689829945564270e-02,-4.399804770946502686e-02,-3.614683821797370911e-02,2.887900173664093018e-02,-3.899591788649559021e-02,-2.953837625682353973e-02,3.340633213520050049e-02,-3.027364425361156464e-02,-2.328784018754959106e-02,3.266899660229682922e-02,-2.707373723387718201e-02
4.104985669255256653e-02,-4.729261249303817749e-02,-4.516183212399482727e-02,5.299198627471923828e-02,3.192816302180290222e-02,-6.279823370277881622e-03,-2.466357126832008362e-02,5.630456283688545227e-02,-3.352760896086692810e-02,-3.763675689697265625e-02,4.027128592133522034e-02,4.948430135846138000e-02,5.238936096429824829e-02,-4.859269130975008011e-03,-3.719807416200637817e-02,4.573142156004905701e-02,1.220837142318487167e-02,-4.628716409206390381e-02,-3.795948997139930725e-02,1.293299160897731781e-02,4.634001851081848145e-02,3.417745232582092285e-02,1.973833329975605011e-02,3.081554919481277466e-02,-5.902121961116790771e-02,-4.699483141303062439e-02,4.900674149394035339e-02,4.955942928791046143e-02,1.311174407601356506e-02,-3.281630203127861023e-02,4.422824457287788391e-02,-4.913052171468734741e-02,-3.873789682984352112e-02,5.515053123235702515e-02,5.373045429587364197e-02,-4.329737275838851929e-02,2.399564534425735474e-02,6.008228659629821777e-02,4.988957196474075317e-02,-3.781740739941596985e-02
5.988591164350509644e-02,-5.547150969505310059e-02,-6.621623784303665161e-02,1.271775458008050919e-02,4.977335035800933838e-02,-1.979667320847511292e-02,-6.029660627245903015e-02,6.191435828804969788e-02,-8.348403498530387878e-03,-5.969234183430671692e-02,5.687070265412330627e-02,5.522343516349792480e-02,6.337002664804458618e-02,-6.729692220687866211e-03,4.868492018431425095e-03,3.154805675148963928e-02,2.937006764113903046e-02,-4.124423488974571228e-02,-6.812154501676559448e-02,4.092688485980033875e-02,4.466587677597999573e-02,3.509956970810890198e-02,1.410371717065572739e-02,1.915427669882774353e-02,-1.984430290758609772e-02,-2.296448871493339539e-02,-3.369021695107221603e-03,3.603712469339370728e-02,-4.310000687837600708e-02,-1.441420335322618484e-02,2.149241790175437927e-02,-5.181326344609260559e-02,-4.208781942725181580e-02,5.957656726241111755e-02,5.254922434687614441e-02,-2.519623935222625732e-02,4.658930376172065735e-02,2.954573929309844971e-02,4.671167209744453430e-02,-5.152347497642040253e-03
-6.459696218371391296e-03,-1.649223733693361282e-03,-1.718863472342491150e-02,-3.171459957957267761e-02,-2.135938033461570740e-02,-1.630209013819694519e-02,2.413729950785636902e-02,-5.223934538662433624e-03,2.293734438717365265e-02,-2.577318437397480011e-02,-2.790990285575389862e-02,1.557004358619451523e-02,-8.519005961716175079e-03,3.242880105972290039e-02,1.277486141771078110e-02,-1.347422599792480469e-02,-1.313682738691568375e-02,-2.637781947851181030e-02,-8.846076205372810364e-03,-2.670530043542385101e-02,-4.118374548852443695e-03,1.063567493110895157e-02,2.526458166539669037e-02,3.429521992802619934e-02,-1.408758293837308884e-02,-1.638810336589813232e-02,2.607588842511177063e-02,-8.589770644903182983e-03,-9.891661815345287323e-03,-2.925757877528667450e-02,1.478192023932933807e-02,2.255575545132160187e-02,2.078020013868808746e-02,1.797938160598278046e-02,1.867258362472057343e-02,-2.486594021320343018e-02,2.475742949172854424e-03,-3.699240088462829590e-02,6.060305051505565643e-03,-1.583912596106529236e-02
-5.226432159543037415e-02,-2.629609033465385437e-02,-5.882565304636955261e-02,5.286991596221923828e-03,-2.298145554959774017e-02,-6.172212306410074234e-03,-5.275322869420051575e-02,-3.476548567414283752e-02,-6.145946308970451355e-02,-6.397568434476852417e-02,-3.034191578626632690e-02,-2.334238402545452118e-02,-4.078840371221303940e-03,2.162474021315574646e-02,7.573809009045362473e-03,4.436489567160606384e-02,-4.229398816823959351e-02,-6.739617139101028442e-02,-5.190442781895399094e-03,-1.475905254483222961e-02,4.626754298806190491e-02,-4.990353435277938843e-02,-8.059331215918064117e-03,7.301849871873855591e-02,5.154914408922195435e-02,-4.272995516657829285e-03,-4.001914337277412415e-02,3.581872954964637756e-02,3.668960928916931152e-02,4.940163716673851013e-02,5.282585322856903076e-02,-6.237527355551719666e-02,-4.623859748244285583e-02,2.107017859816551208e-02,-5.360539536923170090e-03,4.594787955284118652e-02,-1.046309527009725571e-02,4.610040038824081421e-02,-3.284307196736335754e-02,-4.568270593881607056e-02
-4.678713157773017883e-02,4.125086218118667603e-02,-4.855073243379592896e-02,-5.340918898582458496e-02,4.800935834646224976e-02,3.910385444760322571e-02,-3.503940626978874207e-02,-3.878646716475486755e-02,4.732048884034156799e-02,-4.601107537746429443e-02,-1.969248801469802856e-02,4.290745779871940613e-02,1.206646393984556198e-02,-3.678174689412117004e-02,4.976893961429595947e-02,4.814261943101882935e-02,-2.717426791787147522e-02,3.832428529858589172e-02,-5.761777237057685852e-02,-5.374772846698760986e-02,4.215541481971740723e-02,-4.716684669256210327e-02,-1.776463910937309265e-02,-3.051074966788291931e-02,4.645957052707672119e-02,-1.633146777749061584e-02,4.347763583064079285e-02,-3.668863326311111450e-02,-5.138426646590232849e-02,-2.286416850984096527e-02,-1.023587887175381184e-03,-3.984753042459487915e-02,-5.509953945875167847e-02,-8.144334889948368073e-03,5.811690352857112885e-03,-1.286329515278339386e-02,3.962549846619367599e-03,3.989300504326820374e-02,5.047530680894851685e-02,2.298643812537193298e-02
-4.151848610490560532e-03,4.355250392109155655e-03,-9.831461124122142792e-03,-7.952812127768993378e-03,3.053238382562994957e-03,3.698086831718683243e-03,-1.141083240509033203e-02,-1.417826022952795029e-02,2.272844430990517139e-04,3.676834283396601677e-03,1.801805570721626282e-03,-1.277862582355737686e-02,1.087439479306340218e-03,7.780239451676607132e-03,-7.244229316711425781e-03,-8.994706877274438739e-05,-9.817699901759624481e-04,4.820066504180431366e-03,-8.875123225152492523e-03,-1.864390796981751919e-03,-8.791191503405570984e-03,-9.340887889266014099e-03,-8.905481547117233276e-03,5.812909803353250027e-04,-2.750857383944094181e-04,1.368384435772895813e-02,1.460236776620149612e-02,4.723807796835899353e-03,-4.517190624028444290e-03,-5.015578586608171463e-03,3.966989926993846893e-03,-1.035022269934415817e-02,4.308018251322209835e-04,-1.927185454405844212e-03,-1.012844406068325043e-02,-1.939668133854866028e-02,-1.546369167044758797e-03,1.978650316596031189e-02,-1.421957369893789291e-02,1.826258376240730286e-02
3.045393340289592743e-02,-5.115828290581703186e-02,-6.253731250762939453e-02,4.468795657157897949e-02,-4.465968906879425049e-02,-5.017876997590065002e-02,3.131758794188499451e-02,4.328993707895278931e-02,-5.507514625787734985e-02,-6.908593326807022095e-02,2.818847075104713440e-02,5.663491040468215942e-02,-8.063261397182941437e-03,2.074581012129783630e-02,-9.691891260445117950e-03,4.824061691761016846e-02,1.251665316522121429e-02,-3.026966191828250885e-02,-6.078075990080833435e-02,-3.662073984742164612e-02,-5.089386831969022751e-03,6.085228174924850464e-02,-2.137469360604882240e-03,5.429335683584213257e-02,-6.781572103500366211e-02,-2.297611534595489502e-02,4.707667231559753418e-02,5.708782747387886047e-02,2.947864681482315063e-02,-6.100188940763473511e-02,4.913720488548278809e-02,-4.392603784799575806e-02,-2.085627987980842590e-02,6.045947968959808350e-02,6.215309351682662964e-02,-5.470870062708854675e-02,5.140782520174980164e-02,5.001159384846687317e-02,5.311191454529762268e-02,-6.440795212984085083e-02
4.088058322668075562e-02,-8.328074589371681213e-03,-1.031388808041810989e-02,-4.569356795400381088e-03,3.666330501437187195e-02,-4.210275039076805115e-02,5.778899416327476501e-02,1.096604391932487488e-02,2.065267600119113922e-02,2.237054705619812012e-02,-3.944959118962287903e-02,-5.533077940344810486e-02,-1.269947551190853119e-02,-1.943065971136093140e-02,4.775663837790489197e-03,2.409071102738380432e-02,-4.331628605723381042e-02,-1.859199069440364838e-02,-1.174631062895059586e-02,5.180417001247406006e-02,2.819922380149364471e-02,-4.476442933082580566e-02,4.697448760271072388e-02,-3.603851795196533203e-02,-4.064238443970680237e-02,-2.049942873418331146e-02,2.364731021225452423e-02,-4.405692592263221741e-02,2.985399775207042694e-02,-2.559774369001388550e-02,3.120911773294210434e-03,3.642316162586212158e-02,4.856690019369125366e-02,1.928468979895114899e-02,3.686583787202835083e-02,3.279925137758255005e-02,2.215821109712123871e-02,-3.806837648153305054e-02,2.141384966671466827e-02,3.952370211482048035e-02
-5.273485556244850159e-03,4.167553409934043884e-02,4.038283601403236389e-02,-1.750265434384346008e-02,3.914156183600425720e-02,4.619067162275314331e-02,-4.919993504881858826e-02,1.127481553703546524e-02,2.816815860569477081e-02,4.538982361555099487e-02,1.311200787313282490e-03,-2.704422362148761749e-02,3.829526528716087341e-02,-3.256635740399360657e-02,-4.075786098837852478e-02,-4.519886896014213562e-02,-7.835390046238899231e-03,-2.682359190657734871e-04,3.734089434146881104e-02,5.631399154663085938e-02,3.008947148919105530e-02,-2.590060420334339142e-02,2.833014540374279022e-02,-3.598239645361900330e-02,2.993652224540710449e-02,-3.802784718573093414e-03,-3.289505466818809509e-02,-4.045792669057846069e-02,-4.191608726978302002e-02,3.666553273797035217e-02,-1.319144293665885925e-02,2.655241452157497406e-02,-3.284740447998046875e-02,-3.499937057495117188e-02,-3.174559772014617920e-02,2.577851526439189911e-02,-4.809428751468658447e-02,-3.951033949851989746e-02,-3.788979351520538330e-02,2.628385648131370544e-02
1.247785403393208981e-03,4.422787204384803772e-02,-3.932153806090354919e-02,-2.357036434113979340e-02,2.697259373962879181e-02,-2.597639709711074829e-02,-3.568849340081214905e-02,8.311761543154716492e-03,3.393463045358657837e-02,9.923813864588737488e-03,-2.411523088812828064e-02,-4.222634434700012207e-02,3.388486057519912720e-02,-3.091598488390445709e-02,3.910278901457786560e-02,-1.222280785441398621e-02,-2.562953345477581024e-02,-1.726408489048480988e-02,-3.914039582014083862e-02,2.506340295076370239e-02,4.467947036027908325e-02,-4.934179782867431641e-02,-1.929567009210586548e-02,-3.050314029678702354e-03,-3.550741076469421387e-02,-3.743574395775794983e-02,4.558862000703811646e-02,-4.700386896729469299e-02,2.086080785375088453e-04,-9.971179999411106110e-03,2.168447151780128479e-02,2.879166230559349060e-02,-3.852864354848861694e-02,1.550003420561552048e-02,-4.146253690123558044e-02,4.389572888612747192e-03,-3.551911562681198120e-02,3.201914206147193909e-02,4.011911898851394653e-02,-2.286010980606079102e-02
3.309735655784606934e-02,-5.611757934093475342e-02,-8.092608302831649780e-03,6.054548919200897217e-02,4.481146857142448425e-02,4.923493042588233948e-02,4.355234652757644653e-02,3.528286144137382507e-02,2.494663698598742485e-03,-2.685733698308467865e-02,-1.738156750798225403e-02,4.292383790016174316e-02,-6.331206858158111572e-02,2.109605446457862854e-02,-4.130963236093521118e-02,4.420860111713409424e-02,4.132667928934097290e-02,-4.993908852338790894e-02,4.060930386185646057e-02,-5.292912200093269348e-02,-5.354984477162361145e-02,-2.743354439735412598e-02,4.821299761533737183e-02,-4.695804789662361145e-02,-3.816346824169158936e-02,6.251479685306549072e-02,-4.030653461813926697e-02,-2.498224936425685883e-02,-4.701921716332435608e-02,-1.787984743714332581e-02,5.392739176750183105e-02,-4.651730880141258240e-02,-4.323428869247436523e-02,5.693554878234863281e-02,4.357114806771278381e-02,-5.789867416024208069e-02,-4.866145178675651550e-02,5.903552100062370300e-02,1.276160404086112976e-02,-3.518170490860939026e-02
4.498913139104843140e-02,2.219706773757934570e-02,1.703594066202640533e-02,3.942144289612770081e-02,-7.616990059614181519e-02,-1.862436346709728241e-02,-6.917555630207061768e-02,-3.625153750181198120e-02,-4.497896134853363037e-02,-2.996992878615856171e-02,5.658759176731109619e-02,6.402700394392013550e-02,-4.840344190597534180e-03,6.945289671421051025e-02,-6.236128136515617371e-02,-1.978716440498828888e-02,6.954166293144226074e-02,1.050972659140825272e-02,-2.317559206858277321e-03,-1.260775979608297348e-02,-5.306787043809890747e-02,3.417369723320007324e-02,-9.436060674488544464e-03,4.539598897099494934e-02,2.362852543592453003e-02,-2.349246479570865631e-02,-5.286144092679023743e-02,-7.248729933053255081e-03,-5.416228994727134705e-02,1.862031035125255585e-02,7.711779326200485229e-03,-5.257177725434303284e-02,-5.240474268794059753e-02,-6.004884839057922363e-02,2.661264443304389715e-04,-5.834792926907539368e-02,-1.914725638926029205e-02,5.041690915822982788e-02,-4.172101989388465881e-02,-2.682507410645484924e-02
1.133381854742765427e-02,1.876598456874489784e-03,1.786493579857051373e-03,-2.238867746200412512e-04,-5.618115421384572983e-03,-3.993070684373378754e-03,-4.846574738621711731e-03,-6.061280146241188049e-04,-5.057864356786012650e-03,-1.377528067678213120e-03,-4.200349212624132633e-04,1.228868588805198669e-02,7.018552161753177643e-03,1.225033681839704514e-02,3.945996053516864777e-03,-6.531439721584320068e-04,3.560845740139484406e-03,1.699872547760605812e-03,-2.382351551204919815e-03,-5.212506279349327087e-03,1.689316891133785248e-02,-3.288275562226772308e-03,-8.826770819723606110e-03,-8.403206244111061096e-03,3.298459807410836220e-03,1.421541348099708557e-02,-1.806488819420337677e-02,-4.681202117353677750e-03,2.568779978901147842e-03,-2.689897781237959862e-03,2.223518677055835724e-04,3.987798467278480530e-03,1.989533659070730209e-03,-1.245199330151081085e-02,-1.634479151107370853e-03,-1.857479452155530453e-03,1.071656402200460434e-02,3.187826834619045258e-03,-1.155010797083377838e-02,1.043929834850132465e-03
-2.078929729759693146e-02,-4.762423783540725708e-02,-1.655929535627365112e-02,4.272460937500000000e-04,3.285497194156050682e-03,-3.232264891266822815e-02,2.621630206704139709e-02,3.323286771774291992e-02,5.331573076546192169e-03,2.642367407679557800e-02,2.611198276281356812e-02,1.494451798498630524e-02,3.538464009761810303e-02,-1.977084390819072723e-02,-8.077750913798809052e-03,2.175997383892536163e-02,2.737156860530376434e-02,-4.246358294039964676e-03,2.082615904510021210e-02,2.804579678922891617e-03,-4.427079856395721436e-02,-3.886125609278678894e-02,1.624456723220646381e-03,4.949471354484558105e-02,2.822245098650455475e-02,-2.860178053379058838e-02,3.720152378082275391e-02,-3.322736173868179321e-02,-9.467681869864463806e-03,1.565370941534638405e-03,1.569166965782642365e-02,-1.629535481333732605e-02,3.251922875642776489e-02,-9.914314374327659607e-03,-1.413214136846363544e-03,-4.879653081297874451e-02,-3.455255925655364990e-02,2.424594387412071228e-02,2.228957414627075195e-02,-9.426736505702137947e-04
1.896774768829345703e-02,-1.430412847548723221e-02,1.468756515532732010e-02,-2.425121888518333435e-02,3.252683964092284441e-04,1.306889927946031094e-03,1.718974113464355469e-02,-1.385121978819370270e-02,1.222600974142551422e-02,-1.030144002288579941e-02,2.963082678616046906e-02,-9.658616036176681519e-03,-1.969102770090103149e-02,5.480412859469652176e-03,-1.959076849743723869e-03,6.352669093757867813e-03,-2.182217873632907867e-02,-1.680936105549335480e-02,-1.989839971065521240e-02,-1.916890405118465424e-02,3.026622161269187927e-02,-1.814720779657363892e-02,1.278252620249986649e-02,-1.301642321050167084e-02,3.329321369528770447e-02,-1.937001384794712067e-02,1.839241199195384979e-02,-9.045175276696681976e-03,-1.435579499229788780e-03,1.681406795978546143e-02,5.521675106137990952e-03,2.337255887687206268e-02,-1.328668207861483097e-03,2.068839594721794128e-02,-2.262529172003269196e-02,4.386316519230604172e-03,1.236533839255571365e-02,-1.871771551668643951e-02,2.821258641779422760e-02,-3.377416729927062988e-02
5.862743034958839417e-02,-7.182204723358154297e-02,-2.290023677051067352e-02,3.966712392866611481e-04,6.566546112298965454e-02,4.502357169985771179e-02,-2.367705292999744415e-02,3.917519003152847290e-02,1.585178822278976440e-02,6.042031198740005493e-02,2.755109593272209167e-02,-4.786310717463493347e-02,3.226246312260627747e-02,3.133672289550304413e-03,-2.973381988704204559e-02,2.490807324647903442e-03,-1.952228322625160217e-02,-1.614188030362129211e-02,2.379106730222702026e-02,5.040076375007629395e-02,-1.788121834397315979e-02,2.425509691238403320e-02,5.389777943491935730e-02,6.198923662304878235e-02,-7.285562157630920410e-02,-2.319347858428955078e-02,3.968335688114166260e-02,4.836630076169967651e-02,1.641140878200531006e-02,-5.825158581137657166e-02,7.815231569111347198e-03,4.948030039668083191e-02,-4.751757159829139709e-02,-4.617943242192268372e-02,2.212324738502502441e-02,-3.997310064733028412e-03,2.859834022819995880e-02,-1.882625557482242584e-02,-4.921573400497436523e-02,-3.668735921382904053e-02
-1.040393719449639320e-03,-8.940187282860279083e-03,-4.194324091076850891e-02,-1.702235080301761627e-02,9.644818492233753204e-03,-4.790748469531536102e-03,-1.737366244196891785e-02,-1.040995586663484573e-02,3.275555744767189026e-02,4.536090046167373657e-02,-3.170765563845634460e-02,-3.554352000355720520e-02,4.005448892712593079e-03,-3.436373919248580933e-02,-3.109134361147880554e-02,3.419410809874534607e-02,-5.845089326612651348e-04,-3.602648898959159851e-02,4.170889500528573990e-03,3.929525241255760193e-02,-2.378913573920726776e-02,-2.753374725580215454e-02,-5.422306712716817856e-03,-3.607093542814254761e-02,3.186948969960212708e-02,-2.838187105953693390e-02,3.638479113578796387e-02,-3.324245661497116089e-02,-3.892891854047775269e-02,3.736265748739242554e-02,4.372935369610786438e-02,3.417817503213882446e-02,-2.919061854481697083e-02,2.493631793186068535e-03,3.895582631230354309e-02,8.078559301793575287e-03,4.876682069152593613e-03,2.675500698387622833e-02,3.566272929310798645e-02,-1.462495606392621994e-02
3.509369120001792908e-02,-4.310520738363265991e-02,1.171364565379917622e-03,-3.605868667364120483e-02,5.327412486076354980e-02,-4.832059517502784729e-02,4.833611194044351578e-03,-2.492068149149417877e-02,-3.246574848890304565e-02,5.002411454916000366e-02,-3.137164935469627380e-02,2.400103956460952759e-02,1.371742412447929382e-02,9.522907435894012451e-03,2.585694566369056702e-02,-5.243229120969772339e-02,-1.488278899341821671e-02,-2.875767461955547333e-02,-8.660752326250076294e-03,-4.871368035674095154e-02,-4.141464456915855408e-02,-2.378009259700775146e-02,3.223827481269836426e-02,3.254038840532302856e-02,1.843707449734210968e-02,3.619085624814033508e-02,3.775400295853614807e-02,4.914798960089683533e-02,-2.954131551086902618e-02,1.723903231322765350e-02,-5.227622762322425842e-02,5.021565034985542297e-02,4.446901008486747742e-02,3.657395392656326294e-02,-4.906277731060981750e-02,-2.611477114260196686e-02,4.201452806591987610e-02,5.837756395339965820e-02,1.584379561245441437e-02,4.424678534269332886e-02
1.798753067851066589e-02,1.948121003806591034e-02,-1.379862520843744278e-02,-1.388845499604940414e-03,-1.236759871244430542e-02,-3.550375811755657196e-03,-2.930666133761405945e-02,5.356235429644584656e-03,-2.835065498948097229e-02,-1.282324735075235367e-02,-3.725197166204452515e-02,2.291709184646606445e-02,-1.967522315680980682e-02,1.768542826175689697e-02,1.657695323228836060e-02,-2.062445692718029022e-02,-1.662424579262733459e-02,5.553394090384244919e-03,-1.658974960446357727e-02,3.347311168909072876e-02,2.299126796424388885e-02,-9.356779046356678009e-03,-2.955891937017440796e-02,-2.056238614022731781e-02,2.259369939565658569e-02,-1.852610730566084385e-04,-5.129580851644277573e-03,-3.003932908177375793e-02,-3.243996948003768921e-02,-2.403194457292556763e-02,-2.177573740482330322e-02,-1.957772998139262199e-03,-5.043330602347850800e-03,-1.630323752760887146e-02,-3.154183737933635712e-03,2.621133346110582352e-03,1.019805204123258591e-02,-1.316935848444700241e-02,4.254078026860952377e-03,2.275825664401054382e-02
1.411451771855354309e-02,2.175111882388591766e-02,3.786841779947280884e-02,3.314203023910522461e-02,4.821764677762985229e-02,-9.300001896917819977e-03,4.444202035665512085e-02,7.826345972716808319e-03,1.506080385297536850e-02,-4.659508913755416870e-02,4.044224321842193604e-02,3.775368630886077881e-02,3.845017636194825172e-03,-1.184316724538803101e-02,3.100647591054439545e-02,-1.980758644640445709e-02,2.595592662692070007e-02,-2.916062995791435242e-02,-4.946747049689292908e-02,4.629946313798427582e-03,-5.106623843312263489e-02,-2.960980683565139771e-02,2.445946075022220612e-02,3.477880731225013733e-02,1.128717418760061264e-02,1.917429640889167786e-02,-4.102962091565132141e-02,4.339667037129402161e-02,-4.803256690502166748e-02,-2.594685647636651993e-03,-4.184452444314956665e-02,4.895051196217536926e-02,3.959203138947486877e-03,4.756607115268707275e-02,4.229553416371345520e-02,-4.559825733304023743e-02,3.098615631461143494e-02,5.738352425396442413e-03,-5.179635435342788696e-02,-4.783643409609794617e-02
-3.605593368411064148e-02,-3.329048678278923035e-02,5.090916156768798828e-02,3.196640312671661377e-02,-3.232555836439132690e-02,3.395120054483413696e-02,2.608325891196727753e-02,4.681783169507980347e-02,4.432729259133338928e-02,7.866569794714450836e-03,3.699398785829544067e-02,-3.443408757448196411e-02,2.618170902132987976e-02,4.287347570061683655e-02,-1.514036674052476883e-02,-4.892758652567863464e-02,2.898706309497356415e-02,-2.204266749322414398e-02,-3.991384804248809814e-02,-2.056794799864292145e-02,-1.047814358025789261e-02,8.826082572340965271e-03,2.440709061920642853e-02,1.509567722678184509e-02,-3.134839609265327454e-02,9.075694717466831207e-03,5.013310909271240234e-02,-2.589692547917366028e-02,-6.524685304611921310e-03,-2.599481120705604553e-02,2.588385343551635742e-02,1.458225119858980179e-02,5.220777913928031921e-02,2.344301715493202209e-02,-4.628936946392059326e-02,-3.218216076493263245e-02,4.218415170907974243e-02,-4.911317676305770874e-02,5.045682936906814575e-02,-4.330474510788917542e-02
2.022281847894191742e-02,-2.560696005821228027e-02,4.430852131918072701e-04,-1.771795004606246948e-02,-1.806030236184597015e-02,-3.969854116439819336e-02,-2.085552550852298737e-02,1.880946941673755646e-02,2.316102618351578712e-03,-1.821016520261764526e-02,1.463174819946289062e-02,3.536282107234001160e-02,-3.984896093606948853e-02,-7.205856498330831528e-03,4.852341488003730774e-03,1.071514189243316650e-02,-3.890767320990562439e-02,1.413712743669748306e-02,-6.410020403563976288e-03,2.737209200859069824e-02,-3.376805409789085388e-02,2.294937148690223694e-02,-2.342210896313190460e-02,1.182372216135263443e-02,7.693745195865631104e-03,3.597432747483253479e-02,2.235417068004608154e-02,-3.490816801786422729e-02,4.198993742465972900e-02,3.141159936785697937e-02,-1.540013123303651810e-02,1.539672818034887314e-02,-5.009422078728675842e-02,4.447964578866958618e-02,-1.814412511885166168e-02,1.861291239038109779e-03,6.558316946029663086e-02,3.513092175126075745e-02,-1.750336028635501862e-02,9.179661050438880920e-03
-2.011895366013050079e-02,-3.213821724057197571e-02,4.272085428237915039e-02,2.209304086863994598e-02,3.401435166597366333e-02,2.383652329444885254e-02,-5.562472715973854065e-02,-3.525212034583091736e-02,4.989588633179664612e-02,4.831261560320854187e-02,3.148040175437927246e-02,-4.209165275096893311e-02,-3.810102865099906921e-02,1.783347688615322113e-02,-3.058535419404506683e-02,-2.042062021791934967e-02,5.111060664057731628e-02,-5.331423878669738770e-02,-3.599043190479278564e-02,-2.965231798589229584e-02,4.126307368278503418e-02,-6.724527105689048767e-03,-2.733587659895420074e-02,-2.437101490795612335e-02,-4.290005937218666077e-02,-5.609583482146263123e-02,-4.760284349322319031e-02,-4.848548397421836853e-02,4.585626721382141113e-02,4.974049702286720276e-02,4.784111678600311279e-02,-1.654964312911033630e-02,2.594229392707347870e-02,-2.891878411173820496e-02,-3.415120765566825867e-02,4.660303890705108643e-02,4.957194626331329346e-02,4.274389147758483887e-02,4.214244335889816284e-02,2.490498311817646027e-02
-2.406928688287734985e-02,4.672686010599136353e-02,1.864697225391864777e-02,-4.700032621622085571e-02,2.916674828156828880e-03,1.975677721202373505e-02,-1.876391470432281494e-02,3.483826760202646255e-03,4.345487058162689209e-02,1.711715594865381718e-03,1.319619081914424896e-02,-4.188601672649383545e-02,-3.815741091966629028e-02,-9.507958777248859406e-03,-4.882842302322387695e-02,-2.419532742351293564e-03,-4.948768392205238342e-02,-4.287511482834815979e-02,4.783559218049049377e-02,-4.171156883239746094e-02,-4.182744026184082031e-02,1.121922116726636887e-02,-1.071082800626754761e-02,-5.502605810761451721e-02,-2.308397553861141205e-02,1.330702006816864014e-02,2.223034203052520752e-02,9.096127934753894806e-03,-5.422451719641685486e-02,-3.952753916382789612e-02,-3.341352567076683044e-02,1.208487059921026230e-02,3.138506785035133362e-02,-3.884951816871762276e-03,4.567414894700050354e-02,-1.557140238583087921e-02,4.054649919271469116e-02,2.514946833252906799e-02,2.310821972787380219e-02,3.666466102004051208e-02
-4.236210882663726807e-02,5.287159234285354614e-02,6.448770407587289810e-03,-4.573340341448783875e-02,-5.923281982541084290e-02,1.946712471544742584e-02,3.460102528333663940e-02,-5.078426003456115723e-02,-2.823126874864101410e-02,1.366637926548719406e-02,-4.799719154834747314e-02,-1.927557028830051422e-02,-1.328012906014919281e-02,-2.367613604292273521e-03,2.958350814878940582e-02,-1.130397524684667587e-02,-1.037445850670337677e-02,5.143833905458450317e-02,3.031704202294349670e-02,-2.304289676249027252e-02,-2.845131047070026398e-02,-3.078872896730899811e-02,-2.114010043442249298e-02,-4.640121385455131531e-02,2.914064191281795502e-02,5.874566361308097839e-02,-1.349698100239038467e-02,-3.216677810996770859e-03,-2.208058722317218781e-03,3.946043178439140320e-02,-4.519294574856758118e-02,3.217632696032524109e-02,4.714788123965263367e-02,-4.018353298306465149e-02,-1.304474007338285446e-02,2.725041471421718597e-02,-2.307063154876232147e-02,-2.969509921967983246e-02,-4.405250772833824158e-02,1.845696195960044861e-02
-7.248541340231895447e-03,-7.297165226191282272e-03,3.109954670071601868e-02,3.255640342831611633e-02,-1.883804332464933395e-03,3.392690420150756836e-02,3.204958140850067139e-02,-3.137162327766418457e-02,-3.486585617065429688e-02,-3.531817346811294556e-02,7.680892013013362885e-03,-8.749030530452728271e-03,3.173054009675979614e-02,-5.723725538700819016e-03,-2.242843620479106903e-02,-3.556691110134124756e-02,5.284578073769807816e-03,1.392323430627584457e-02,3.333261236548423767e-02,1.833180151879787445e-02,1.680292934179306030e-02,6.939705461263656616e-03,1.793830469250679016e-02,-1.282600965350866318e-02,-2.100562676787376404e-02,-3.622660413384437561e-02,3.594286367297172546e-02,-9.078632108867168427e-03,1.394350454211235046e-02,1.419197022914886475e-02,1.821886748075485229e-02,-4.083250463008880615e-02,-3.448244929313659668e-02,-4.337115585803985596e-02,9.107101708650588989e-03,1.863801479339599609e-02,2.273234073072671890e-03,5.513862706720829010e-03,8.335694670677185059e-03,3.181904926896095276e-02
1.067992765456438065e-02,3.649721667170524597e-02,-3.670062497258186340e-02,-5.501562729477882385e-02,3.807496652007102966e-02,4.113106802105903625e-02,4.168075695633888245e-02,3.035435266792774200e-02,-1.384217571467161179e-02,2.559759095311164856e-02,7.679326226934790611e-04,5.457434430718421936e-02,-1.503628212958574295e-02,-3.191976994276046753e-02,2.432323060929775238e-02,-6.422909907996654510e-03,-5.055560730397701263e-03,-3.903685510158538818e-02,-2.885869890451431274e-02,-4.359856620430946350e-02,-4.517976939678192139e-02,-3.500400856137275696e-02,3.180540353059768677e-02,-3.762377798557281494e-02,5.266906321048736572e-02,-2.224181592464447021e-02,3.223472461104393005e-02,-1.324688177555799484e-02,-9.611519984900951385e-03,2.470680978149175644e-03,-1.177650783210992813e-02,-3.251182660460472107e-02,4.746831580996513367e-02,-4.028691351413726807e-02,-4.441299289464950562e-02,2.159886207664385438e-05,-4.440381005406379700e-02,-2.141344361007213593e-02,5.490781040862202644e-04,-5.435096472501754761e-02
3.622553194873034954e-04,3.878004848957061768e-02,2.724376320838928223e-02,4.954497143626213074e-02,-4.640678688883781433e-02,5.567624419927597046e-02,-4.276878759264945984e-02,7.092087063938379288e-03,3.365277871489524841e-02,-4.702407866716384888e-02,-6.103967782109975815e-03,-4.355318099260330200e-02,-2.263703010976314545e-02,4.690223187208175659e-02,-3.668939322233200073e-02,3.239156678318977356e-02,5.864101275801658630e-02,4.566071182489395142e-02,-4.125044494867324829e-02,4.897082969546318054e-02,5.918745324015617371e-02,3.555173054337501526e-02,-5.712639540433883667e-02,-5.338051170110702515e-02,-1.824853383004665375e-02,6.617920007556676865e-03,-4.489705711603164673e-02,-2.942912466824054718e-02,3.420447930693626404e-02,5.019778758287429810e-02,3.416077047586441040e-02,-3.463012352585792542e-02,-4.626203700900077820e-02,-1.497833896428346634e-02,4.266855120658874512e-02,4.353762045502662659e-02,-1.286712288856506348e-02,4.401331767439842224e-03,7.112676394172012806e-04,-5.293369665741920471e-02
5.075056478381156921e-02,6.329748779535293579e-03,4.480778798460960388e-02,1.660655625164508820e-02,5.502944067120552063e-02,6.631060503423213959e-03,6.092562153935432434e-02,5.726669728755950928e-02,5.994538590312004089e-02,3.196770697832107544e-02,4.688468575477600098e-02,5.621383711695671082e-02,-5.029974877834320068e-02,1.455922145396471024e-03,-7.652947213500738144e-03,-3.694502636790275574e-02,-2.162420004606246948e-02,1.120573095977306366e-02,4.163924604654312134e-02,4.264487698674201965e-02,-5.475746840238571167e-02,4.890107363462448120e-02,-6.076806038618087769e-02,-4.881476610898971558e-02,-4.291758313775062561e-02,9.258273057639598846e-03,5.274642258882522583e-02,-3.173171356320381165e-02,-3.180998191237449646e-02,-7.282300386577844620e-03,-3.884872421622276306e-02,5.051141977310180664e-02,-1.804669760167598724e-02,-2.936267293989658356e-02,9.938508272171020508e-03,-6.018863059580326080e-03,1.824512891471385956e-02,-5.975158140063285828e-02,4.080631211400032043e-02,-1.975307986140251160e-02
-3.638006746768951416e-02,3.640070930123329163e-02,-4.670670628547668457e-02,7.641513366252183914e-04,-2.803275547921657562e-02,-2.940169535577297211e-02,6.538541987538337708e-03,-2.832976914942264557e-02,3.218163549900054932e-02,-2.847803197801113129e-02,-4.044676944613456726e-02,-1.840762095525860786e-03,-8.309581317007541656e-03,-4.038736224174499512e-02,-4.080086573958396912e-02,5.647749640047550201e-04,-1.134161651134490967e-02,2.042502537369728088e-02,-2.661718428134918213e-02,2.672038599848747253e-02,2.687047421932220459e-02,-3.746545314788818359e-02,-3.047253564000129700e-02,-2.528881095349788666e-02,-1.188061945140361786e-02,-4.343122243881225586e-02,-4.352185502648353577e-02,3.470673412084579468e-02,-2.569577842950820923e-02,1.730584912002086639e-02,7.538505364209413528e-03,2.181552723050117493e-02,1.443645264953374863e-02,-3.555829077959060669e-02,7.344830315560102463e-03,-2.151172235608100891e-02,-1.533319335430860519e-02,-6.981566548347473145e-03,-4.911798611283302307e-02,1.537521556019783020e-02
-5.054909270256757736e-03,3.568513318896293640e-02,-4.117288067936897278e-02,3.043418750166893005e-02,-2.079470455646514893e-02,2.395002543926239014e-02,6.036571413278579712e-02,5.422093346714973450e-02,3.675448521971702576e-02,4.077645391225814819e-02,-3.524767979979515076e-02,-2.452667802572250366e-03,-3.128829225897789001e-02,-1.343712490051984787e-02,-9.494677651673555374e-04,6.070486735552549362e-03,3.576281480491161346e-03,4.674402251839637756e-02,-4.193838685750961304e-02,5.981746315956115723e-02,-4.090457409620285034e-02,4.967015609145164490e-02,1.776238344609737396e-02,3.046096488833427429e-02,-3.618251904845237732e-02,4.255735129117965698e-02,-2.765245735645294189e-02,-4.334183409810066223e-02,1.473488193005323410e-02,3.336887434124946594e-02,2.629745937883853912e-02,-2.449357137084007263e-02,3.683458641171455383e-02,3.592973574995994568e-02,-3.161602467298507690e-02,-4.753604531288146973e-02,2.433119900524616241e-02,4.583816975355148315e-02,-4.911141097545623779e-02,-1.210851711221039295e-03
-3.382076323032379150e-02,-4.577463492751121521e-02,4.648854583501815796e-02,5.106454715132713318e-02,-4.707436263561248779e-02,-4.204048216342926025e-02,-3.189378976821899414e-02,-3.057502210140228271e-02,2.243658713996410370e-02,-2.866100147366523743e-02,-1.144802104681730270e-02,-4.581024125218391418e-02,1.517930999398231506e-02,4.799335077404975891e-02,-9.812315925955772400e-03,1.057171914726495743e-02,5.672437604516744614e-03,2.405650541186332703e-02,5.537680536508560181e-02,4.379752650856971741e-02,5.685656517744064331e-02,4.173381999135017395e-02,-5.398008599877357483e-02,5.071707814931869507e-02,-4.843809083104133606e-02,3.817469626665115356e-02,-4.777233675122261047e-02,3.498577279970049858e-03,1.725971698760986328e-02,-7.560285739600658417e-03,1.733437925577163696e-02,3.833497315645217896e-02,-3.718947991728782654e-02,3.267014399170875549e-02,4.723250493407249451e-02,-4.400573205202817917e-03,5.031391978263854980e-02,2.190476283431053162e-02,-7.784095592796802521e-03,4.510358348488807678e-02
-3.086063265800476074e-02,-3.329294919967651367e-02,-1.355818659067153931e-02,4.010510817170143127e-02,2.266595698893070221e-02,-3.464799374341964722e-02,-4.051198065280914307e-02,3.366001695394515991e-02,-1.681935228407382965e-02,-3.190904855728149414e-02,-4.374222457408905029e-02,1.822025328874588013e-02,-2.740432322025299072e-02,5.868762265890836716e-03,2.336862869560718536e-02,4.103242605924606323e-02,-4.281598329544067383e-02,-1.338100060820579529e-02,-2.465249411761760712e-02,-2.420461364090442657e-02,-4.345908761024475098e-02,3.165645897388458252e-02,-2.074863202869892120e-02,2.531665749847888947e-02,-6.703717168420553207e-03,1.819312921725213528e-03,3.392646089196205139e-02,-4.016608372330665588e-02,3.424503281712532043e-02,3.234587609767913818e-03,3.603575751185417175e-02,3.926661610603332520e-02,3.678137436509132385e-02,-4.474307410418987274e-03,-2.640975266695022583e-02,6.674532778561115265e-03,-1.251675467938184738e-02,2.615195326507091522e-02,-3.374430164694786072e-02,6.019176449626684189e-03
6.059934850782155991e-03,1.734894351102411747e-03,-1.014079991728067398e-02,-2.353322319686412811e-02,-2.115355804562568665e-02,-1.897241547703742981e-02,1.029615197330713272e-02,1.298300363123416901e-02,-6.283837836235761642e-03,6.317880935966968536e-03,9.758927626535296440e-04,-3.764069406315684319e-04,9.363247081637382507e-03,-8.109790273010730743e-03,-2.441683318465948105e-03,1.994592137634754181e-03,-9.791194461286067963e-03,-4.928767681121826172e-03,4.594346974045038223e-03,1.876550354063510895e-02,9.837686084210872650e-03,-1.917188055813312531e-04,1.284625474363565445e-02,1.389605225995182991e-03,-7.160296663641929626e-04,-6.279246415942907333e-03,6.244864780455827713e-03,-3.515556454658508301e-03,-2.541074529290199280e-03,6.444185040891170502e-03,4.861813504248857498e-03,1.716181170195341110e-03,-1.468849740922451019e-02,-2.365581505000591278e-02,8.130871690809726715e-03,6.043464411050081253e-03,-7.249769289046525955e-03,-9.332607151009142399e-04,2.318113576620817184e-03,6.193909794092178345e-03
-6.913241930305957794e-03,-5.847436562180519104e-02,2.641852246597409248e-03,4.387539625167846680e-02,-2.249690145254135132e-02,-3.524725139141082764e-02,5.946072936058044434e-02,5.329274758696556091e-02,-9.781383909285068512e-03,5.075634643435478210e-02,5.701750051230192184e-03,1.774546131491661072e-02,4.419108852744102478e-02,3.518297150731086731e-02,-5.578731186687946320e-03,5.587499588727951050e-02,2.661920897662639618e-02,-4.126243665814399719e-02,6.617371737957000732e-02,1.147121842950582504e-02,-4.714158922433853149e-02,-3.839384019374847412e-02,1.365636568516492844e-02,5.994998849928379059e-03,6.420943886041641235e-02,-6.465750187635421753e-02,5.637879297137260437e-02,-5.243799462914466858e-02,5.021019652485847473e-02,4.016817733645439148e-02,5.713348090648651123e-02,-4.123489931225776672e-02,-1.264994218945503235e-02,3.345964476466178894e-03,2.917649969458580017e-02,-4.885736852884292603e-02,-1.383059099316596985e-02,6.272879987955093384e-02,3.070536628365516663e-02,-1.706694066524505615e-02
-2.815305255353450775e-02,-1.554474700242280960e-02,2.847309410572052002e-02,1.363051962107419968e-02,1.391796860843896866e-03,8.777703158557415009e-03,3.825637698173522949e-02,3.403202816843986511e-02,2.416074648499488831e-02,2.492602355778217316e-02,-3.726606816053390503e-02,-3.993048518896102905e-02,1.493876770837232471e-04,2.881697751581668854e-02,3.436469286680221558e-02,-3.005097620189189911e-02,-1.294346712529659271e-02,-3.930122405290603638e-02,-3.418261557817459106e-02,1.602501049637794495e-02,-3.572991490364074707e-02,3.896740823984146118e-02,3.000506944954395294e-02,1.511917449533939362e-02,-3.996408730745315552e-02,-2.050670608878135681e-02,1.160538755357265472e-02,-2.619900368154048920e-02,6.504518445581197739e-03,-2.997899614274501801e-02,3.004390001296997070e-02,2.415572851896286011e-02,4.437536932528018951e-03,-1.681886985898017883e-02,-3.737410530447959900e-02,2.634245529770851135e-02,3.398795798420906067e-02,-2.212725020945072174e-02,8.974470198154449463e-03,-3.505339473485946655e-02
-2.701117470860481262e-02,-3.656714037060737610e-02,2.545801736414432526e-02,1.084274891763925552e-02,-2.330390270799398422e-03,4.314323887228965759e-02,-3.568066284060478210e-02,-4.824509844183921814e-03,-4.241594672203063965e-02,2.957208640873432159e-02,-2.632267400622367859e-02,-3.619082644581794739e-02,-2.974980510771274567e-02,4.335138574242591858e-02,-1.849832572042942047e-02,-3.849585354328155518e-02,-3.319612890481948853e-02,3.402719274163246155e-02,3.283128514885902405e-02,4.134092479944229126e-03,9.665516205132007599e-03,2.977692894637584686e-02,4.115251451730728149e-02,3.227629140019416809e-02,4.181659594178199768e-02,1.161339506506919861e-02,3.448937833309173584e-02,-4.344004020094871521e-02,3.399655967950820923e-02,-4.006034880876541138e-02,3.571273013949394226e-02,-1.572018302977085114e-02,-2.976441197097301483e-02,1.518887234851717949e-03,3.163396567106246948e-02,-1.504187565296888351e-02,-3.566932678222656250e-02,-1.022168807685375214e-02,-3.135023638606071472e-02,-3.165820240974426270e-02
-4.056457430124282837e-02,-4.001321271061897278e-02,-4.577979445457458496e-02,-5.884999874979257584e-03,4.455639980733394623e-03,-2.682336419820785522e-02,3.675942122936248779e-02,-3.654979169368743896e-02,-3.402865491807460785e-03,3.583765355870127678e-03,-1.435989886522293091e-02,2.690753154456615448e-02,-3.842401877045631409e-02,3.771233931183815002e-02,4.259957000613212585e-02,1.304384693503379822e-02,2.055853605270385742e-02,2.901132917031645775e-03,-2.024340815842151642e-02,3.312149271368980408e-02,-4.476418346166610718e-02,3.925531730055809021e-02,-3.512657061219215393e-02,-4.553893208503723145e-02,1.200423203408718109e-02,4.125605896115303040e-02,-4.243915155529975891e-02,-3.269069269299507141e-02,-3.797166747972369194e-03,-9.997372515499591827e-03,-4.647973552346229553e-02,1.592338643968105316e-02,2.283775061368942261e-02,1.074345968663692474e-02,-2.888832986354827881e-02,5.123370513319969177e-02,-3.640327602624893188e-02,3.620948642492294312e-02,1.652811467647552490e-02,-5.884277168661355972e-03
-3.539627790451049805e-02,4.191653057932853699e-02,7.756693754345178604e-03,9.264155291020870209e-03,-3.677738457918167114e-02,-5.044260621070861816e-02,5.004329979419708252e-02,-4.045935720205307007e-02,-3.856328874826431274e-02,-2.127152122557163239e-02,-5.467106774449348450e-02,5.495288595557212830e-02,-4.074802994728088379e-02,1.534184208139777184e-03,5.761315673589706421e-02,-2.992516197264194489e-02,5.306775216013193130e-03,-2.417883649468421936e-02,-4.242616519331932068e-02,-2.002741768956184387e-02,-1.660329289734363556e-02,-4.652443528175354004e-02,-4.449976980686187744e-02,-4.050418362021446228e-02,5.183988064527511597e-02,3.383310139179229736e-02,-5.168908834457397461e-02,-3.747029602527618408e-02,5.579540506005287170e-03,5.925903841853141785e-02,-3.323993459343910217e-02,-4.913571104407310486e-02,5.738493800163269043e-02,5.159252509474754333e-02,-4.507984220981597900e-02,2.577875368297100067e-02,-5.004724487662315369e-02,5.186148360371589661e-02,4.949900507926940918e-02,4.223579913377761841e-02
-4.438085481524467468e-02,4.993149265646934509e-02,5.356521531939506531e-02,4.597428068518638611e-02,-4.893254116177558899e-02,-4.712341353297233582e-02,5.006333068013191223e-02,-5.094204843044281006e-02,-5.185263231396675110e-02,3.652279824018478394e-02,5.621237680315971375e-02,-4.752287641167640686e-02,5.381441861391067505e-02,-9.838785044848918915e-03,-6.302561610937118530e-02,-3.105622157454490662e-02,1.096674706786870956e-03,-2.284494042396545410e-02,-4.357079043984413147e-02,-5.381272360682487488e-02,-4.986480250954627991e-02,-3.296703472733497620e-02,1.218175888061523438e-02,3.369477391242980957e-02,-4.573651030659675598e-02,-3.831100836396217346e-02,-2.941147796809673309e-02,-4.868403449654579163e-02,5.845894664525985718e-02,-3.375610709190368652e-02,2.018732763826847076e-02,5.868157744407653809e-02,-4.326466098427772522e-02,4.929285123944282532e-02,-3.624979406595230103e-02,7.059589261189103127e-04,4.382527247071266174e-02,-4.169438406825065613e-02,-3.270151093602180481e-02,3.918401151895523071e-02
4.370967391878366470e-03,2.335779368877410889e-02,2.575026825070381165e-02,-1.804032362997531891e-02,4.909284040331840515e-02,4.390779882669448853e-03,-5.331862345337867737e-02,-2.732943184673786163e-02,5.205241218209266663e-02,5.730637162923812866e-02,-3.523445501923561096e-02,-3.481661155819892883e-02,3.268329426646232605e-02,-3.884494677186012268e-02,3.931282088160514832e-03,-2.692704834043979645e-02,-2.980821020901203156e-02,-3.674420062452554703e-03,-2.030344679951667786e-03,5.860275775194168091e-02,6.241785734891891479e-02,-4.627725109457969666e-02,-1.935492642223834991e-02,-1.808246597647666931e-02,1.296862494200468063e-02,-3.596296906471252441e-02,-2.559551270678639412e-03,-4.903140291571617126e-02,-2.113985083997249603e-02,2.749996259808540344e-02,-1.115903444588184357e-02,1.061936933547258377e-02,-2.611860260367393494e-02,-1.342611853033304214e-02,-2.299629710614681244e-02,1.501634996384382248e-02,-4.670442268252372742e-02,-2.374725416302680969e-02,-1.103094778954982758e-02,2.549678646028041840e-02
3.025998547673225403e-02,1.324670854955911636e-03,-4.024405032396316528e-02,-1.224338542670011520e-03,-3.602105006575584412e-02,-3.664980083703994751e-02,3.419410064816474915e-02,3.244367986917495728e-02,-3.059366159141063690e-02,-2.012402564287185669e-02,-1.992077752947807312e-02,2.747632749378681183e-02,2.820787206292152405e-02,-9.153342805802822113e-03,2.821324393153190613e-02,-8.726177737116813660e-03,-3.420231491327285767e-02,2.517201192677021027e-02,2.103464305400848389e-02,3.900189185515046120e-03,-1.742960512638092041e-02,-4.552834667265415192e-03,1.157656032592058182e-02,1.601897552609443665e-02,2.301834151148796082e-02,2.745740860700607300e-02,1.962436921894550323e-02,2.718434110283851624e-02,-2.522424980998039246e-02,-3.064550645649433136e-02,-1.339345052838325500e-02,2.202427713200449944e-03,-1.389048062264919281e-02,2.013772167265415192e-02,2.371708862483501434e-02,-3.153086453676223755e-02,-2.509516291320323944e-02,-1.388341467827558517e-02,-1.887442916631698608e-02,-5.231618415564298630e-03
-5.361296981573104858e-02,2.446017041802406311e-02,1.471146289259195328e-02,3.053972730413079262e-03,-3.781734034419059753e-02,-3.678005561232566833e-02,3.310412541031837463e-02,5.060392618179321289e-02,1.242228783667087555e-02,5.257085338234901428e-02,3.474611788988113403e-02,-6.331703159958124161e-03,1.142102852463722229e-02,4.698146134614944458e-02,4.773444309830665588e-02,9.188065305352210999e-03,3.802012279629707336e-02,1.001983694732189178e-02,-3.837565705180168152e-02,-5.857923533767461777e-03,6.005292292684316635e-03,-1.857537962496280670e-02,1.914784125983715057e-02,-4.507015645503997803e-02,-5.578142032027244568e-02,2.119122259318828583e-02,2.312694303691387177e-02,-4.385985806584358215e-02,-2.499116584658622742e-02,2.941362001001834869e-02,-1.344499364495277405e-02,-1.351389801129698753e-03,4.045488685369491577e-02,2.056868001818656921e-02,1.781175524229183793e-04,2.186274621635675430e-03,-1.764677278697490692e-02,-1.581354299560189247e-03,6.621096283197402954e-03,2.217282541096210480e-02
2.318335324525833130e-02,-3.887919709086418152e-02,-4.201564565300941467e-02,-3.862024843692779541e-02,3.782457113265991211e-02,4.899370670318603516e-02,-5.023263394832611084e-02,-2.807785198092460632e-02,-3.324564918875694275e-02,-3.162408992648124695e-02,-2.773679047822952271e-02,2.121305838227272034e-02,2.457298524677753448e-02,-4.330709576606750488e-02,8.601413108408451080e-03,3.209483250975608826e-02,-5.091598723083734512e-03,1.971663720905780792e-02,9.411951526999473572e-03,2.971742488443851471e-02,2.730342000722885132e-02,4.043382126837968826e-03,3.491048142313957214e-02,2.738522738218307495e-02,4.377429559826850891e-02,3.735924512147903442e-02,-2.776018716394901276e-02,4.258523881435394287e-02,2.534803003072738647e-02,-3.635821491479873657e-02,3.805543109774589539e-02,1.817777566611766815e-02,-4.768338426947593689e-02,-6.684532854706048965e-03,3.161652013659477234e-02,-3.124702908098697662e-02,-3.397525474429130554e-02,2.999543957412242889e-02,-4.440644755959510803e-02,8.872983045876026154e-03
-4.089061170816421509e-02,2.101977355778217316e-02,-2.982011251151561737e-02,-2.238955534994602203e-02,-2.720653265714645386e-02,-1.685525104403495789e-02,2.915050135925412178e-03,-3.395125269889831543e-02,5.019997060298919678e-02,-2.488433942198753357e-02,-3.417111933231353760e-02,-1.574517600238323212e-02,-2.177878469228744507e-02,-3.373155742883682251e-02,-5.005659908056259155e-02,2.543054893612861633e-02,-3.873651102185249329e-02,3.842062875628471375e-02,-3.332868590950965881e-02,2.236680826172232628e-03,4.308268427848815918e-02,-4.312140867114067078e-02,-4.634414985775947571e-02,-4.191682487726211548e-02,2.538004890084266663e-02,-5.869308486580848694e-02,-4.747311398386955261e-02,-5.361641291528940201e-03,-2.082941308617591858e-02,2.609710022807121277e-02,4.283925518393516541e-02,-8.977087214589118958e-03,4.556217044591903687e-02,-6.938805431127548218e-02,-1.158058992587029934e-03,-5.117150023579597473e-02,5.530506023205816746e-04,3.669552132487297058e-02,-4.677980393171310425e-02,2.586147561669349670e-02
-2.152222394943237305e-02,-5.350926145911216736e-02,-5.959135666489601135e-02,-2.660127170383930206e-02,1.221604086458683014e-02,1.702089607715606689e-02,6.371070444583892822e-02,-4.211165755987167358e-02,3.061851486563682556e-02,-1.886999607086181641e-02,-2.081706374883651733e-02,3.626175597310066223e-02,-5.151338502764701843e-02,4.570647329092025757e-02,9.411915205419063568e-03,3.674137219786643982e-02,5.646311212331056595e-03,2.513720281422138214e-02,3.223764942958950996e-03,3.177623450756072998e-02,-4.381753876805305481e-02,6.937104463577270508e-02,-5.420999601483345032e-02,-5.068140476942062378e-02,4.122073948383331299e-02,5.938933044672012329e-02,-4.693026840686798096e-02,-4.494768381118774414e-02,3.876769542694091797e-02,-3.866638615727424622e-02,-2.600366482511162758e-03,-9.415824897587299347e-03,6.096776574850082397e-02,-9.945051744580268860e-03,-4.211586341261863708e-02,7.833176292479038239e-03,-4.386820271611213684e-02,5.064980313181877136e-02,5.861438438296318054e-02,-4.144632816314697266e-02
1.546519249677658081e-02,-8.526082150638103485e-03,1.111637242138385773e-02,2.359790727496147156e-03,4.162444267421960831e-03,-1.239350438117980957e-02,6.453415844589471817e-03,-1.242991257458925247e-02,1.658641267567873001e-03,-3.964970528613775969e-04,6.560275331139564514e-03,2.056540362536907196e-02,1.089207828044891357e-02,-7.316565141081809998e-03,-7.026391569525003433e-03,-1.828338205814361572e-02,-1.590636931359767914e-02,6.945798173546791077e-03,1.038952148519456387e-03,7.760001812130212784e-03,-9.187846444547176361e-03,-6.187222432345151901e-03,-3.369261510670185089e-03,-1.182760950177907944e-02,8.550081402063369751e-03,5.474101752042770386e-03,-2.711828565225005150e-04,-8.581914938986301422e-03,-1.054025068879127502e-02,-9.368572384119033813e-03,1.360465120524168015e-02,1.687787845730781555e-02,1.911700703203678131e-02,-3.187693888321518898e-03,1.109403278678655624e-02,-1.071392279118299484e-02,-4.242389695718884468e-04,9.989606915041804314e-04,9.048196487128734589e-03,-1.006031036376953125e-02
1.862104609608650208e-02,-2.143348567187786102e-02,-2.158191427588462830e-02,-2.055302076041698456e-02,-8.734736591577529907e-03,-1.283145695924758911e-02,5.714247934520244598e-03,1.997991837561130524e-02,-3.066503256559371948e-02,-2.153237909078598022e-02,-1.386917196214199066e-02,-1.563502103090286255e-02,1.426545251160860062e-02,1.654972881078720093e-02,-9.460316970944404602e-03,1.848569884896278381e-02,2.022222615778446198e-02,1.524926535785198212e-02,-1.239516865462064743e-02,1.911028102040290833e-02,8.917204104363918304e-03,1.797487586736679077e-02,-1.965493662282824516e-03,1.391107309609651566e-02,1.323516713455319405e-03,9.536704048514366150e-03,-2.550410851836204529e-02,3.287631273269653320e-02,-1.587131991982460022e-02,-2.052069641649723053e-03,-3.108871914446353912e-02,-6.176310125738382339e-03,-1.039839256554841995e-02,6.241312948986887932e-04,1.999370753765106201e-02,-9.893666021525859833e-03,-1.836722716689109802e-02,-2.191494684666395187e-03,2.428970858454704285e-02,7.602218072861433029e-03
-1.138240471482276917e-02,8.164690807461738586e-03,1.632813736796379089e-02,-2.857919316738843918e-03,-3.104886491200886667e-05,-7.925298064947128296e-03,6.477429531514644623e-03,-2.139796875417232513e-02,8.819077163934707642e-03,2.622908167541027069e-02,-3.051517345011234283e-02,-2.167300693690776825e-02,-6.138927768915891647e-03,1.255174446851015091e-02,6.848041899502277374e-03,-1.560310460627079010e-02,6.392438896000385284e-03,8.147125132381916046e-03,1.726047508418560028e-02,8.976193144917488098e-03,-6.434951443225145340e-03,1.096324995160102844e-03,4.126765299588441849e-03,-4.229673184454441071e-03,1.014863327145576477e-02,2.031606622040271759e-02,-8.898124098777770996e-03,-2.623005583882331848e-02,-1.623594574630260468e-02,2.579656057059764862e-02,-2.364891394972801208e-02,1.572215929627418518e-02,2.397208847105503082e-02,-2.666819654405117035e-02,-2.782052569091320038e-02,3.124248608946800232e-02,-1.073766686022281647e-02,-2.699574688449501991e-03,1.221922691911458969e-03,2.062467858195304871e-02
-5.449770018458366394e-02,1.207775995135307312e-02,-2.870242111384868622e-02,1.148410979658365250e-02,-8.125475607812404633e-03,-5.105279386043548584e-02,2.772737294435501099e-02,5.734204500913619995e-02,-4.352257400751113892e-02,3.470771387219429016e-02,4.793739318847656250e-02,4.555521998554468155e-03,3.231856599450111389e-02,3.065202943980693817e-02,4.465483501553535461e-02,5.573957413434982300e-02,3.965277969837188721e-02,2.135329134762287140e-02,-4.633675143122673035e-02,1.075272355228662491e-02,4.765909537672996521e-02,-5.297224596142768860e-02,4.318840429186820984e-02,-5.723886564373970032e-02,-4.306143522262573242e-02,5.781318992376327515e-02,1.783208717824891210e-04,-4.823289066553115845e-02,-3.819649666547775269e-02,-7.779446896165609360e-03,-5.855188705027103424e-03,2.805654704570770264e-02,4.831187427043914795e-02,2.923987433314323425e-02,5.098278075456619263e-02,-4.733659327030181885e-02,-3.128962963819503784e-02,8.145608007907867432e-03,-3.051577508449554443e-02,4.822612181305885315e-02
2.870777249336242676e-02,2.127468399703502655e-02,3.254514932632446289e-02,-3.100947290658950806e-02,-7.023562211543321609e-03,-3.903900086879730225e-02,2.721032686531543732e-02,1.152188051491975784e-03,2.326981723308563232e-02,1.344388071447610855e-02,3.263670951128005981e-02,-4.144408926367759705e-02,-6.961340550333261490e-03,4.803971573710441589e-02,-4.234502837061882019e-02,3.135663643479347229e-02,4.549019411206245422e-02,3.481400385499000549e-02,-4.941683635115623474e-02,2.165714651346206665e-02,-7.099376525729894638e-03,-3.698184713721275330e-02,4.476867988705635071e-02,-3.493361920118331909e-02,1.191850518807768822e-03,-4.014819115400314331e-02,3.162292391061782837e-02,3.245890513062477112e-02,-3.916595503687858582e-02,-2.742734551429748535e-02,1.451991405338048935e-02,-7.545621134340763092e-03,1.440522633492946625e-02,-4.017201066017150879e-02,1.501057855784893036e-02,-4.802706092596054077e-02,4.549491778016090393e-02,5.314939189702272415e-04,2.280689962208271027e-02,3.243450075387954712e-02
1.895670033991336823e-02,-9.442110545933246613e-03,-1.622594706714153290e-02,-1.529696490615606308e-02,7.985103875398635864e-03,1.194701716303825378e-02,3.087531309574842453e-03,1.761148869991302490e-02,2.225680835545063019e-02,-1.687475666403770447e-02,-1.718724146485328674e-02,1.136014703661203384e-02,-9.310734458267688751e-04,1.378334127366542816e-02,1.720093749463558197e-02,-8.134439704008400440e-04,4.326136782765388489e-03,8.351406082510948181e-03,5.602658260613679886e-03,1.610717363655567169e-02,1.986884139478206635e-02,7.858883589506149292e-03,-1.002333476208150387e-03,-1.078335847705602646e-02,1.939003821462392807e-03,2.726780623197555542e-02,5.552295595407485962e-03,-1.134917023591697216e-03,-1.161072123795747757e-02,-1.045339740812778473e-02,1.116320956498384476e-02,-2.237185463309288025e-02,5.859174765646457672e-03,-7.733695674687623978e-03,-7.680509705096483231e-03,-1.096395310014486313e-02,-1.475966256111860275e-02,2.745913155376911163e-02,7.525984663516283035e-03,-1.108871772885322571e-02
3.981199860572814941e-02,-8.601574227213859558e-03,4.071238264441490173e-02,3.378869593143463135e-02,-2.809120528399944305e-02,-3.685717238113284111e-03,-2.757062017917633057e-02,-3.600537404417991638e-02,2.815975062549114227e-02,1.687341928482055664e-02,3.407479822635650635e-02,2.093692310154438019e-02,4.114399477839469910e-02,3.706847131252288818e-02,4.228474572300910950e-02,-1.759407296776771545e-02,4.850050061941146851e-02,3.548002988100051880e-02,-3.240528702735900879e-02,3.515310585498809814e-02,-2.378081716597080231e-02,-1.655683852732181549e-02,3.059244342148303986e-02,-5.314674600958824158e-02,-2.846966497600078583e-02,2.840651571750640869e-02,5.041841883212327957e-03,2.476124465465545654e-02,4.245967790484428406e-02,4.477607458829879761e-02,-2.929555997252464294e-02,4.219238087534904480e-02,4.510266333818435669e-02,3.192558139562606812e-02,2.646419964730739594e-02,2.731047756969928741e-02,5.073394998908042908e-02,1.988130062818527222e-02,-3.733525052666664124e-02,-2.751132240518927574e-03
-1.083468552678823471e-02,3.131132945418357849e-02,-2.861583605408668518e-02,-4.225533083081245422e-02,3.387188911437988281e-02,-3.560343012213706970e-02,-2.208729647099971771e-02,4.316216800361871719e-03,2.573399432003498077e-02,3.583614155650138855e-02,-3.153653070330619812e-02,-3.757820650935173035e-02,2.934827469289302826e-02,-4.608243703842163086e-02,3.242863714694976807e-02,-1.209744345396757126e-02,-4.146014153957366943e-02,-3.604986518621444702e-02,-2.602715976536273956e-02,2.824525348842144012e-02,4.470894858241081238e-02,-3.795036301016807556e-02,-3.143243491649627686e-02,-1.342296716757118702e-03,-2.430508844554424286e-02,-2.054048515856266022e-02,3.542254865169525146e-02,-3.201902657747268677e-02,3.355484222993254662e-03,-7.496885955333709717e-03,4.534833878278732300e-02,2.903383411467075348e-02,-3.165097162127494812e-02,-7.805993082001805305e-04,-2.446892112493515015e-02,5.660789553076028824e-03,-2.073784358799457550e-02,3.083935566246509552e-02,3.377812728285789490e-02,-3.806841373443603516e-02
4.868690669536590576e-02,-4.067400470376014709e-02,4.326284676790237427e-02,2.282179705798625946e-02,-5.468469858169555664e-02,-7.243866100907325745e-03,5.521753430366516113e-02,-5.832308158278465271e-02,-3.939768299460411072e-02,-6.259749829769134521e-02,2.400983311235904694e-02,-5.486812442541122437e-02,-5.472932010889053345e-02,8.961115963757038116e-03,-3.412915160879492760e-03,-2.006931789219379425e-02,-5.702937766909599304e-02,-4.789392650127410889e-02,2.368051744997501373e-02,-5.587073415517807007e-02,4.501792415976524353e-02,-4.435575008392333984e-02,4.556910693645477295e-02,1.385239069350063801e-03,2.496434934437274933e-02,-3.494252637028694153e-02,4.992198944091796875e-02,-1.330865174531936646e-02,-1.387583557516336441e-02,1.082377880811691284e-02,5.734109133481979370e-02,5.599702894687652588e-02,-3.869957476854324341e-02,4.371939226984977722e-02,-4.114085435867309570e-02,4.223316162824630737e-02,-2.617568150162696838e-02,-9.031566791236400604e-03,5.436973273754119873e-02,-4.134899750351905823e-02
1.416021957993507385e-02,-1.328318938612937927e-02,-6.052496656775474548e-02,-1.495197322219610214e-02,-2.947851270437240601e-02,-5.126269906759262085e-02,-6.335184723138809204e-02,4.675918817520141602e-02,-6.267532706260681152e-02,-3.865841776132583618e-02,-3.478014841675758362e-02,5.591060966253280640e-02,-5.145908147096633911e-02,5.238705500960350037e-02,1.251931395381689072e-02,-1.158714201301336288e-02,-3.545985743403434753e-02,-3.195249941200017929e-03,-2.042021043598651886e-02,4.814006760716438293e-02,2.994722314178943634e-02,-4.655578732490539551e-02,-6.033803522586822510e-02,2.764024771749973297e-02,6.118089333176612854e-02,2.981344424188137054e-02,-3.387577459216117859e-02,-4.422876983880996704e-02,-6.798999849706888199e-03,-2.414508163928985596e-02,-4.094091057777404785e-02,-3.519979119300842285e-02,-4.932112991809844971e-02,1.310011278837919235e-02,-3.514449670910835266e-02,3.858910501003265381e-02,3.184683620929718018e-02,2.694787085056304932e-02,2.280635060742497444e-03,1.444914750754833221e-02
-3.384349867701530457e-02,-3.722820803523063660e-02,3.798957169055938721e-02,-1.319022732786834240e-03,4.291221499443054199e-02,3.574676811695098877e-02,-2.115491963922977448e-02,-4.469028115272521973e-02,1.357626449316740036e-02,4.797171056270599365e-02,1.264598593115806580e-02,-3.566964715719223022e-02,-4.477153345942497253e-02,3.934668749570846558e-02,2.431452833116054535e-02,3.322388976812362671e-02,6.674651056528091431e-02,-5.263906717300415039e-02,2.551362151280045509e-03,-5.431494116783142090e-02,-2.293058298528194427e-02,6.651538424193859100e-03,1.551880408078432083e-02,-4.025809466838836670e-02,7.398345042020082474e-03,-4.871966689825057983e-02,-3.256131336092948914e-02,-2.513027191162109375e-02,1.372172217816114426e-02,4.490787163376808167e-02,5.575214326381683350e-02,4.696309566497802734e-03,3.523818776011466980e-02,-6.292760372161865234e-03,-1.803272403776645660e-02,4.202815145254135132e-02,2.604448422789573669e-02,6.083669513463973999e-02,2.296213805675506592e-02,3.302242606878280640e-02
-2.793037705123424530e-02,3.088835813105106354e-02,-2.741670235991477966e-02,2.552917413413524628e-02,-3.051177039742469788e-02,2.017087116837501526e-02,-5.631181225180625916e-02,-1.274830941110849380e-02,8.573301136493682861e-03,1.705776900053024292e-02,2.866493165493011475e-02,3.150935098528862000e-02,2.698395401239395142e-02,-1.627584174275398254e-02,-2.746776305139064789e-02,6.116572022438049316e-02,-1.751538552343845367e-02,6.536748260259628296e-03,-2.859196320059709251e-05,-5.197953060269355774e-02,8.568975143134593964e-03,1.547414530068635941e-02,-3.879036754369735718e-02,1.296736020594835281e-02,4.990840703248977661e-02,3.823203593492507935e-02,5.756567697972059250e-04,-4.674720391631126404e-02,-1.676268130540847778e-02,-5.604562908411026001e-02,-3.758943453431129456e-02,2.659694105386734009e-02,2.227085642516613007e-02,1.193510647863149643e-02,-4.681620746850967407e-02,-9.550025686621665955e-03,-1.204463373869657516e-02,9.575784206390380859e-03,3.314752131700515747e-02,2.967727743089199066e-02
-1.927910745143890381e-02,6.087387353181838989e-02,-2.534417901188135147e-03,-3.048493713140487671e-02,-5.131930857896804810e-02,-4.170070216059684753e-02,-5.831694230437278748e-02,-6.167837604880332947e-02,4.278495907783508301e-02,4.937354847788810730e-02,4.162963479757308960e-02,2.960990555584430695e-02,6.160285696387290955e-02,-3.655523061752319336e-02,2.993288077414035797e-02,-2.395450137555599213e-02,-2.774281613528728485e-02,4.076194018125534058e-02,-6.530140340328216553e-02,-5.216359626501798630e-03,4.224088042974472046e-02,1.129301078617572784e-02,-6.734481453895568848e-02,5.117414891719818115e-02,5.283179506659507751e-02,3.650882840156555176e-02,4.603809490799903870e-02,-4.867937788367271423e-02,1.416931860148906708e-02,-4.414488002657890320e-02,-2.823134139180183411e-02,4.074842482805252075e-02,3.804241120815277100e-02,-3.380018100142478943e-02,-5.431991443037986755e-02,3.195758908987045288e-02,3.018492646515369415e-02,-4.844677075743675232e-02,3.025869838893413544e-02,5.064705759286880493e-02
-3.082997351884841919e-02,-1.974062807857990265e-02,6.297506392002105713e-02,4.132700711488723755e-02,-7.752696517854928970e-03,-2.103869628626853228e-04,5.725889280438423157e-02,-3.987584263086318970e-02,6.675430573523044586e-03,3.812260553240776062e-02,3.885417431592941284e-02,-4.682429879903793335e-02,3.960975632071495056e-02,-4.438195750117301941e-02,-4.705623164772987366e-02,4.218990355730056763e-02,-8.976894430816173553e-03,-3.170267492532730103e-02,3.401720896363258362e-03,-4.480827599763870239e-02,-4.253542795777320862e-02,8.577744476497173309e-03,3.815946355462074280e-02,3.934986889362335205e-02,-5.565697327256202698e-02,1.971639459952712059e-03,4.970230162143707275e-02,7.359757553786039352e-03,4.788473993539810181e-02,3.035861253738403320e-02,3.389677405357360840e-02,1.860183849930763245e-02,1.540863886475563049e-02,3.718706220388412476e-02,-5.640923045575618744e-03,-1.953150704503059387e-02,8.216166752390563488e-04,1.373217906802892685e-02,-2.755050547420978546e-02,-4.517984390258789062e-02
-2.638723142445087433e-02,5.324257910251617432e-02,-3.007372468709945679e-02,2.000247768592089415e-04,-3.023029491305351257e-02,-3.957634419202804565e-02,-2.851613983511924744e-02,-1.019149925559759140e-02,-6.294155493378639221e-03,1.160943415015935898e-02,-2.328653074800968170e-02,-2.238990366458892822e-02,3.032143414020538330e-02,-4.384925588965415955e-03,2.560916543006896973e-02,1.207709871232509613e-02,-5.763838067650794983e-03,3.565847128629684448e-02,3.032011678442358971e-03,2.718902565538883209e-02,1.456159725785255432e-02,2.765387110412120819e-02,7.966399192810058594e-03,-4.727028310298919678e-03,4.204336926341056824e-02,-3.934001922607421875e-02,-2.833367325365543365e-02,-4.610387608408927917e-03,3.020673617720603943e-02,-1.093770563602447510e-02,-2.220647595822811127e-02,4.025560244917869568e-02,-4.967111628502607346e-03,-2.257567644119262695e-02,-4.026491194963455200e-03,5.890813097357749939e-02,1.429750956594944000e-02,-1.079960633069276810e-02,-6.679871003143489361e-04,3.077687509357929230e-02
2.070139534771442413e-02,2.787908073514699936e-03,1.294299401342868805e-02,5.324175115674734116e-03,1.105289813131093979e-02,8.226664736866950989e-03,3.311126306653022766e-02,-1.205017324537038803e-02,3.297602385282516479e-02,2.769798785448074341e-02,-1.163711957633495331e-02,-2.680511772632598877e-02,2.705771289765834808e-02,4.805816803127527237e-03,-3.327398560941219330e-03,-2.956688590347766876e-02,1.617345958948135376e-02,3.841561079025268555e-02,1.059931237250566483e-03,-1.147465873509645462e-02,2.495344378985464573e-04,4.944456275552511215e-03,2.148361504077911377e-02,-2.649967372417449951e-02,-2.633927576243877411e-02,-1.301942020654678345e-02,-1.354385982267558575e-03,3.839261457324028015e-02,-2.632732689380645752e-02,-2.429871633648872375e-02,1.720843650400638580e-02,3.528425097465515137e-02,2.198163419961929321e-02,-1.107693836092948914e-02,2.766198106110095978e-02,-2.550502121448516846e-02,-1.314119435846805573e-02,-2.779966592788696289e-02,3.405223041772842407e-02,3.289669007062911987e-02
1.798793487250804901e-02,-1.652847602963447571e-02,-2.369941212236881256e-03,-3.382020816206932068e-02,-4.013473168015480042e-02,1.258848421275615692e-02,3.328657895326614380e-02,-2.641115151345729828e-02,2.139096707105636597e-02,-1.244551781564950943e-02,-3.465051203966140747e-02,2.328476682305335999e-02,-3.075418621301651001e-02,1.575564406812191010e-02,3.686736896634101868e-02,-4.137362167239189148e-02,3.548761457204818726e-02,1.513382326811552048e-02,-1.434262376278638840e-02,2.343940176069736481e-02,-1.729998737573623657e-02,-2.887658961117267609e-02,-3.062621317803859711e-02,2.851651050150394440e-02,-1.287702657282352448e-02,-2.812090702354907990e-02,-1.960785128176212311e-02,4.159130528569221497e-02,-1.539750210940837860e-02,3.229419887065887451e-02,2.938634157180786133e-02,-1.034088153392076492e-02,-3.276062384247779846e-02,1.047477126121520996e-02,-8.466166444122791290e-03,-6.211146712303161621e-03,3.167366981506347656e-02,4.048289731144905090e-03,2.076224610209465027e-02,-1.438703108578920364e-02
3.359417989850044250e-02,2.740144915878772736e-02,4.604448098689317703e-03,9.104245342314243317e-03,-2.858729660511016846e-02,-2.862357906997203827e-02,-3.303326666355133057e-02,-3.120874427258968353e-02,-1.074309740215539932e-02,3.007047809660434723e-02,2.062568441033363342e-02,2.087460272014141083e-02,-4.730170592665672302e-03,1.782702282071113586e-02,-3.602096065878868103e-02,-1.497437339276075363e-02,2.459878847002983093e-02,2.606748975813388824e-02,1.625319942831993103e-02,-1.661461405456066132e-02,-1.199356839060783386e-02,1.291720289736986160e-02,3.127298504114151001e-02,1.638107746839523315e-02,-5.383266136050224304e-03,1.325373165309429169e-02,-2.929683774709701538e-02,-1.886837184429168701e-02,-1.056078262627124786e-02,-1.422100793570280075e-02,2.412097528576850891e-02,-1.952150464057922363e-02,-3.525654599070549011e-02,-4.462532815523445606e-04,-3.828980028629302979e-02,-1.159906270913779736e-03,-2.077672258019447327e-02,1.300063170492649078e-02,-2.639248035848140717e-02,-2.109870314598083496e-02
3.726594895124435425e-02,5.919190123677253723e-02,4.371690377593040466e-02,-5.261151120066642761e-02,4.997268784791231155e-03,1.818852685391902924e-02,-3.202933445572853088e-02,-5.038688331842422485e-02,-5.883973836898803711e-02,-3.074666298925876617e-02,-3.831558674573898315e-02,3.118339739739894867e-02,-4.866456612944602966e-02,2.605520561337471008e-02,3.910031914710998535e-02,-3.886361792683601379e-02,-4.277154803276062012e-02,-3.415200859308242798e-02,-4.142950475215911865e-02,-3.896945342421531677e-02,4.011868312954902649e-02,4.186381772160530090e-02,2.014780417084693909e-02,-4.419948160648345947e-02,-3.652345761656761169e-02,3.578470274806022644e-02,-3.121774457395076752e-02,2.549130469560623169e-02,-4.461484029889106750e-02,-1.848520152270793915e-02,-2.876112982630729675e-02,4.748304188251495361e-02,-3.946173191070556641e-02,3.392462432384490967e-02,-1.773957163095474243e-02,4.357098042964935303e-02,4.197485744953155518e-02,-2.809178642928600311e-02,-4.708956182003021240e-02,3.737190738320350647e-02
-6.485010683536529541e-02,5.384903773665428162e-02,-1.656325906515121460e-02,1.474537234753370285e-02,-3.716526180505752563e-02,4.994028806686401367e-02,4.163363948464393616e-02,6.191049143671989441e-02,2.984846942126750946e-02,-5.473975464701652527e-02,3.911622241139411926e-02,1.440880540758371353e-02,-1.867956295609474182e-02,-6.759808957576751709e-02,-2.561883255839347839e-02,5.748798698186874390e-02,-2.437013573944568634e-02,-3.305650502443313599e-02,6.845823675394058228e-02,-2.887320006266236305e-03,6.181792914867401123e-02,-3.104596585035324097e-02,-4.734203964471817017e-02,9.409965947270393372e-03,1.527776848524808884e-02,-5.209451541304588318e-02,-4.055139049887657166e-02,-6.737317144870758057e-02,-6.204950064420700073e-02,-4.907643049955368042e-02,7.809766684658825397e-04,-6.311153620481491089e-02,-6.621064990758895874e-02,-6.245509535074234009e-02,4.636187106370925903e-02,1.587370410561561584e-02,-5.851678922772407532e-02,-6.404942274093627930e-02,2.378903143107891083e-02,-4.313719272613525391e-02
-5.187294445931911469e-03,3.627779334783554077e-02,4.603085294365882874e-02,-3.971964120864868164e-03,1.170793175697326660e-02,-4.944515973329544067e-02,-4.191426560282707214e-02,-1.333026774227619171e-02,-2.782775647938251495e-02,1.704646460711956024e-02,-2.750006970018148422e-03,-5.712730810046195984e-02,5.354524776339530945e-02,-2.910366468131542206e-02,1.912521198391914368e-02,-3.473738580942153931e-02,5.324529111385345459e-02,-5.240437760949134827e-02,-4.501853138208389282e-02,5.275648087263107300e-03,-8.965318091213703156e-03,-4.703778028488159180e-02,-7.921135053038597107e-03,3.827936016023159027e-04,-4.847984760999679565e-02,-1.001323852688074112e-02,1.492979377508163452e-02,-1.162069104611873627e-02,-3.748568147420883179e-02,4.688520729541778564e-02,-5.556825175881385803e-02,5.479649454355239868e-02,-2.618985623121261597e-02,3.957245498895645142e-02,4.936711490154266357e-02,4.299455508589744568e-02,1.398911327123641968e-02,-3.658236935734748840e-02,-1.693851314485073090e-02,3.393706306815147400e-02
-2.867693314328789711e-03,4.469473205972462893e-04,-1.049893070012331009e-02,-1.621324382722377777e-02,-7.539080688729882240e-04,-8.559526875615119934e-03,1.823518611490726471e-02,-1.692137564532458782e-03,-7.815797813236713409e-03,2.535849809646606445e-03,1.863990351557731628e-02,2.082430291920900345e-03,1.083364337682723999e-02,-6.471257656812667847e-03,6.604387424886226654e-03,1.263349200598895550e-03,-1.240630168467760086e-02,-1.747705228626728058e-02,-9.803105145692825317e-03,4.845382645726203918e-03,-1.392059586942195892e-02,-2.806609496474266052e-02,-8.984167361631989479e-04,-4.832887498196214437e-04,-2.256826870143413544e-02,1.384168956428766251e-02,-1.557179354131221771e-02,2.677296288311481476e-03,3.103855764493346214e-03,7.341960445046424866e-03,-1.287134643644094467e-02,-6.806544959545135498e-03,2.707020394154824317e-05,-2.875605830922722816e-03,-5.321585107594728470e-03,2.017220482230186462e-02,4.190315026789903641e-03,1.646292395889759064e-03,6.250576581805944443e-03,1.782226189970970154e-02
-4.000997915863990784e-02,2.854502014815807343e-02,-2.745021879673004150e-02,-4.217488318681716919e-02,-2.609713189303874969e-02,-3.511551395058631897e-02,3.002790920436382294e-02,-3.330466896295547485e-02,6.381127983331680298e-02,-4.730821028351783752e-02,-3.212374076247215271e-02,-1.797496341168880463e-02,-3.598028048872947693e-02,-1.191983092576265335e-02,-3.457305580377578735e-02,2.583736367523670197e-02,-4.197193682193756104e-02,-2.567677013576030731e-02,5.012274160981178284e-02,-5.636478587985038757e-02,-4.389884322881698608e-02,-4.315858706831932068e-03,-6.299191154539585114e-03,-3.189913555979728699e-02,-4.446993395686149597e-02,1.625320687890052795e-02,2.605738490819931030e-02,-1.596597023308277130e-02,-4.696889966726303101e-02,-3.387977927923202515e-02,-7.718530483543872833e-03,-5.095900967717170715e-03,6.086858361959457397e-02,3.511401638388633728e-02,2.509850449860095978e-02,-3.406947106122970581e-02,4.467423073947429657e-03,4.405359551310539246e-02,2.130356617271900177e-02,2.192351222038269043e-02
-2.214898122474551201e-03,1.274530589580535889e-02,9.318799711763858795e-03,-1.850203424692153931e-02,-1.090867165476083755e-02,-5.594702903181314468e-03,8.118465542793273926e-03,-1.732649630866944790e-03,-2.396119059994816780e-03,1.494316849857568741e-02,6.403350271284580231e-04,7.857474498450756073e-03,-3.927467332687228918e-05,-5.412819795310497284e-03,-3.243426093831658363e-03,2.259041415527462959e-03,-3.062832867726683617e-03,1.219299156218767166e-02,5.755197256803512573e-03,-5.967556033283472061e-03,6.626129616051912308e-03,-8.340090280398726463e-04,-5.799566395580768585e-03,-1.440896186977624893e-02,1.035232003778219223e-02,-1.557012088596820831e-03,2.804117044433951378e-03,-1.209106296300888062e-02,-1.345634087920188904e-02,-6.034832913428544998e-03,-1.304383669048547745e-02,-7.444871123880147934e-03,3.771987045183777809e-03,4.825951065868139267e-03,-1.100200042128562927e-02,3.969484474509954453e-03,1.089532952755689621e-02,-4.603803623467683792e-03,4.707093350589275360e-03,4.943511914461851120e-03
-3.198908269405364990e-02,-1.661022752523422241e-02,-1.680097728967666626e-02,-1.938595436513423920e-02,3.539602831006050110e-02,2.093673497438430786e-02,1.316820643842220306e-02,1.147130783647298813e-02,9.378693066537380219e-03,2.202186174690723419e-02,5.102424183860421181e-04,-2.191408723592758179e-02,8.900566957890987396e-03,-6.694737821817398071e-03,1.207133661955595016e-02,5.561843048781156540e-03,-4.847849253565073013e-03,1.268113218247890472e-02,1.363770570605993271e-03,-2.572643943130970001e-02,5.130610428750514984e-03,1.367422752082347870e-02,-3.103423863649368286e-03,-2.139352634549140930e-02,-2.841964550316333771e-02,2.682579867541790009e-02,4.140642471611499786e-03,2.268472872674465179e-02,4.454527981579303741e-03,-7.485551293939352036e-03,-1.627423241734504700e-02,2.382324449717998505e-02,2.146840328350663185e-03,1.113084610551595688e-02,1.398886926472187042e-02,5.572542082518339157e-03,-1.845123991370201111e-02,-2.142268046736717224e-02,2.278657443821430206e-02,1.836892962455749512e-02
-1.122941169887781143e-02,1.224747020751237869e-02,1.894768141210079193e-02,-4.558196291327476501e-03,2.019870094954967499e-02,1.423852518200874329e-02,-1.168161816895008087e-02,-9.906025603413581848e-03,2.053538337349891663e-02,-5.514498334378004074e-03,-2.641688846051692963e-02,-2.784855663776397705e-03,2.200403437018394470e-02,3.718407358974218369e-03,-9.441153146326541901e-03,-2.138223685324192047e-02,-9.340679273009300232e-03,4.610839299857616425e-03,-3.436605446040630341e-03,-3.240528050810098648e-03,-1.480078697204589844e-02,3.454016521573066711e-03,1.052322518080472946e-02,-2.006565965712070465e-02,1.534900348633527756e-02,-1.902258954942226410e-03,1.346968393772840500e-02,-1.743512041866779327e-02,2.685785479843616486e-02,-1.417997106909751892e-02,1.428197044879198074e-02,-1.364477910101413727e-02,2.032537711784243584e-03,-6.885238457471132278e-03,-2.133738482370972633e-03,-1.711303018964827061e-03,1.223508152179419994e-03,1.101373974233865738e-02,-2.668657712638378143e-02,-2.889998489990830421e-03
-7.061224896460771561e-04,-4.624488577246665955e-02,4.558118060231208801e-02,-5.056109279394149780e-02,1.475785113871097565e-02,-4.975150153040885925e-02,-3.818612918257713318e-02,-4.428470134735107422e-02,-4.155832901597023010e-02,-4.442568123340606689e-02,4.476823285222053528e-02,1.413736585527658463e-02,5.030012503266334534e-02,4.146180581301450729e-03,1.120160566642880440e-03,-2.544512227177619934e-02,2.172390464693307877e-03,-5.153385922312736511e-02,4.190117120742797852e-02,-3.639397397637367249e-02,5.190506950020790100e-02,-4.038290679454803467e-02,-4.710965603590011597e-02,-5.352888256311416626e-02,4.536453261971473694e-02,-4.899786412715911865e-02,4.090203344821929932e-02,4.163631424307823181e-02,-1.534269936382770538e-02,-4.600230231881141663e-02,-3.631915152072906494e-02,3.519054129719734192e-02,-5.201365798711776733e-02,-2.662019059062004089e-02,4.646243527531623840e-02,4.492152482271194458e-02,-5.201466754078865051e-02,-4.529871046543121338e-02,3.819615766406059265e-02,9.138148277997970581e-03
-5.484503880143165588e-02,1.810712739825248718e-02,4.013518244028091431e-02,-3.362339362502098083e-02,4.360285773873329163e-02,-3.920462355017662048e-02,-2.870207279920578003e-02,4.149597510695457458e-02,-2.907509356737136841e-02,3.675825148820877075e-02,-4.762375727295875549e-03,3.985348716378211975e-02,-1.077596098184585571e-02,-2.629190497100353241e-02,-4.197535291314125061e-02,-2.365400455892086029e-02,-6.004333123564720154e-02,-4.163386672735214233e-02,-4.188739508390426636e-02,-4.083216190338134766e-02,1.112133264541625977e-02,5.186599865555763245e-02,-1.522869430482387543e-02,3.950184956192970276e-02,-9.710486978292465210e-03,-1.765960268676280975e-02,4.398404434323310852e-02,-3.565037995576858521e-02,4.571049287915229797e-02,5.109159275889396667e-02,5.213357135653495789e-02,-1.471149269491434097e-02,4.193603619933128357e-02,1.385795325040817261e-02,-4.217973724007606506e-02,3.745837882161140442e-02,-4.768514260649681091e-02,3.876921162009239197e-02,-4.590972885489463806e-02,2.812122553586959839e-02
-2.485161088407039642e-02,2.607212588191032410e-02,4.510744474828243256e-03,-7.714920677244663239e-03,1.116814091801643372e-02,-2.737393951974809170e-04,-1.505151763558387756e-02,9.564458392560482025e-03,4.071267787367105484e-03,4.344383720308542252e-03,-1.785165444016456604e-02,1.194055002997629344e-04,7.366504520177841187e-03,9.752837009727954865e-03,-1.415227819234132767e-02,1.454639527946710587e-02,1.973204314708709717e-02,-3.187263151630759239e-03,-5.890387110412120819e-03,-1.036547473631799221e-03,-1.977784559130668640e-03,7.884595543146133423e-03,-1.646148972213268280e-02,1.146365515887737274e-02,-1.304288581013679504e-02,2.002678066492080688e-02,-8.200461976230144501e-03,8.108213543891906738e-03,-1.206337939947843552e-03,-3.886049613356590271e-03,-4.735760390758514404e-03,-1.342085190117359161e-02,1.133189885877072811e-03,-1.097846217453479767e-02,7.009693421423435211e-03,-7.219769526273012161e-03,1.453907135874032974e-02,1.543052121996879578e-02,-2.040057256817817688e-02,1.204316783696413040e-02
-8.339564315974712372e-03,9.486840106546878815e-03,-1.200471073389053345e-02,1.479329820722341537e-02,-1.926511758938431740e-03,1.775827025994658470e-03,6.376881618052721024e-03,-1.398295816034078598e-02,8.587799384258687496e-04,-1.185244601219892502e-02,1.542759407311677933e-02,-8.356606587767601013e-03,-8.193078450858592987e-03,-1.093090418726205826e-02,7.954506203532218933e-03,3.169059986248612404e-03,3.273053327575325966e-03,3.366753458976745605e-03,9.485599584877490997e-03,-9.675662731751799583e-04,-1.809354871511459351e-03,-1.353702228516340256e-02,6.722966209053993225e-03,7.795022800564765930e-03,1.161282509565353394e-02,3.217709716409444809e-03,-2.993603236973285675e-03,-6.828003679402172565e-04,2.109263325110077858e-03,1.490434724837541580e-02,-7.466411916539072990e-04,-9.881945326924324036e-03,1.686633937060832977e-02,-3.397213062271475792e-03,-5.309529602527618408e-03,1.197130978107452393e-02,-2.124005230143666267e-03,-8.382545784115791321e-03,-1.749628223478794098e-03,6.258619017899036407e-03
3.702112287282943726e-02,3.861221717670559883e-03,5.318176001310348511e-02,-8.501689881086349487e-03,3.775085881352424622e-02,-3.465012460947036743e-02,4.464440792798995972e-02,3.148775175213813782e-02,4.243304207921028137e-02,4.344853386282920837e-02,4.093268513679504395e-02,1.117009110748767853e-02,-4.064524173736572266e-02,-2.565005980432033539e-02,-4.556538071483373642e-03,-6.494561675935983658e-03,-2.588521130383014679e-02,4.063421115279197693e-02,7.451730314642190933e-03,2.279982343316078186e-02,-2.819526754319667816e-02,4.052511602640151978e-02,-2.817772515118122101e-02,-4.665535688400268555e-02,-2.361706271767616272e-02,1.804810948669910431e-02,4.266949743032455444e-02,-4.946975782513618469e-02,6.493013352155685425e-03,-3.089235350489616394e-02,-4.532959312200546265e-02,5.665699765086174011e-02,2.065136283636093140e-02,-4.276757128536701202e-03,-5.424622446298599243e-02,-2.970120497047901154e-02,3.724486380815505981e-02,-3.324177861213684082e-02,-1.003185170702636242e-03,2.887534908950328827e-02
-2.861109562218189240e-02,-5.947271361947059631e-02,-4.755903035402297974e-02,-2.878711372613906860e-02,3.122052177786827087e-02,2.618813142180442810e-02,2.730222977697849274e-02,4.908065125346183777e-02,3.922486677765846252e-02,-2.326766960322856903e-02,-2.262375690042972565e-02,-3.529549390077590942e-02,4.314738139510154724e-02,-4.252718389034271240e-02,3.691028431057929993e-02,3.941768407821655273e-02,-3.530202433466911316e-02,-2.166531421244144440e-02,-2.215634100139141083e-02,-3.471275558695197105e-04,2.140350826084613800e-02,-8.318443782627582550e-03,-2.935981750488281250e-02,2.100251440424472094e-04,-4.942632745951414108e-03,-1.468640472739934921e-02,1.619412750005722046e-02,3.778037801384925842e-02,-1.649949885904788971e-02,3.977269679307937622e-02,-5.168756842613220215e-02,2.369382604956626892e-02,4.825722053647041321e-02,3.880547732114791870e-02,4.416574165225028992e-02,4.159544780850410461e-02,4.516839236021041870e-02,-4.075014963746070862e-02,3.100389800965785980e-02,4.363990202546119690e-02
-1.428739819675683975e-02,1.819233410060405731e-02,3.279656544327735901e-02,-7.250824943184852600e-03,-1.786960102617740631e-02,1.712726615369319916e-02,6.090384908020496368e-03,-2.806410193443298340e-02,3.264397615566849709e-03,-1.520413160324096680e-02,-1.556907501071691513e-02,-2.226677536964416504e-02,-1.948650367558002472e-02,-1.593170315027236938e-02,-1.716748252511024475e-02,-1.261219196021556854e-02,-1.702018268406391144e-02,-2.449658466503024101e-03,1.130763813853263855e-02,-1.550660468637943268e-02,-1.588025502860546112e-02,-1.898572407662868500e-02,1.751402765512466431e-02,-3.349506296217441559e-03,-2.064140327274799347e-02,-1.395042333751916885e-02,2.148883417248725891e-02,-1.366476714611053467e-02,1.033566659316420555e-03,-1.788751967251300812e-02,-5.762498476542532444e-04,-1.441706065088510513e-02,1.812465675175189972e-02,-2.327644452452659607e-02,1.022103708237409592e-02,-4.298288375139236450e-03,3.616162110120058060e-03,2.382855117321014404e-02,-3.478929167613387108e-03,8.329131640493869781e-03
4.261736571788787842e-02,-1.371195912361145020e-02,5.043694004416465759e-02,2.432784624397754669e-02,1.285745203495025635e-02,1.206673774868249893e-02,8.081753738224506378e-03,1.135187596082687378e-02,-3.349997103214263916e-02,3.700205311179161072e-02,5.119144171476364136e-02,2.733804658055305481e-02,2.552929800003767014e-03,3.634328395128250122e-02,2.583427168428897858e-02,-2.986997598782181740e-03,1.390176638960838318e-02,-1.844698190689086914e-02,5.013972148299217224e-02,-2.537735737860202789e-02,-2.820629067718982697e-02,4.290568828582763672e-02,2.847828902304172516e-02,3.090471401810646057e-02,-1.772931218147277832e-02,4.204177856445312500e-02,3.434526920318603516e-02,-4.133228585124015808e-02,5.397410318255424500e-02,-1.149045303463935852e-02,-2.219787985086441040e-02,-6.644472479820251465e-03,-3.767373412847518921e-02,4.643579944968223572e-02,-2.208097837865352631e-02,3.655891492962837219e-02,2.599119767546653748e-02,-7.908963598310947418e-03,4.549770429730415344e-02,-3.691244497895240784e-02
1.332160318270325661e-03,2.491694502532482147e-02,-1.061466243118047714e-02,1.081628445535898209e-02,2.691830042749643326e-03,2.480049803853034973e-02,3.111172653734683990e-02,1.268142275512218475e-02,-9.024996543303132057e-04,9.032542817294597626e-03,-7.818395271897315979e-03,7.078551687300205231e-03,-1.043469365686178207e-02,-1.759352348744869232e-02,8.087012916803359985e-03,2.438448183238506317e-02,8.246121928095817566e-03,8.768141269683837891e-03,-7.044436410069465637e-03,5.231292918324470520e-03,-1.735529117286205292e-02,4.348472692072391510e-03,1.916739530861377716e-02,4.571343306452035904e-03,-1.111730094999074936e-02,5.802375264465808868e-03,-1.495541073381900787e-02,-3.060729801654815674e-02,-1.204287036671303213e-04,2.798706665635108948e-02,1.165844127535820007e-02,-2.036336250603199005e-02,2.627896331250667572e-02,1.967377774417400360e-02,-1.176522485911846161e-02,-1.544161606580018997e-02,2.773098461329936981e-02,2.196922339498996735e-02,-2.749473974108695984e-02,4.672920331358909607e-03
-2.936621569097042084e-02,4.603378102183341980e-02,4.241904243826866150e-02,4.586548358201980591e-02,-3.496994823217391968e-02,-6.124202162027359009e-03,3.535394743084907532e-02,-3.310997039079666138e-02,-5.061235651373863220e-02,-3.289181366562843323e-02,-3.526550903916358948e-02,1.433168165385723114e-02,-5.003253743052482605e-02,-2.569061703979969025e-02,-3.876436129212379456e-02,-2.065378427505493164e-02,-4.469093680381774902e-02,1.421251334249973297e-02,5.309480056166648865e-02,-4.140104725956916809e-02,-3.782512992620468140e-02,5.843576975166797638e-03,1.910169981420040131e-02,1.856284029781818390e-02,-9.446990676224231720e-03,-4.107891023159027100e-02,3.371052443981170654e-02,-3.735114261507987976e-02,4.769800230860710144e-02,2.234080433845520020e-02,4.645904898643493652e-02,-3.084028698503971100e-02,4.508749023079872131e-02,-3.362316638231277466e-02,4.124742746353149414e-02,-2.740647457540035248e-02,-4.594091325998306274e-02,-9.534401819109916687e-03,3.931105509400367737e-02,2.196899615228176117e-02
-8.344322443008422852e-03,9.968342259526252747e-03,3.471233416348695755e-03,-1.599322818219661713e-02,2.214172855019569397e-03,-5.927518941462039948e-04,-1.081512961536645889e-02,2.339835278689861298e-03,3.756818128749728203e-03,-3.578974166885018349e-03,-2.047595102339982986e-03,-1.390809379518032074e-02,1.552063319832086563e-02,-4.320364911109209061e-03,2.973131602630019188e-03,-5.359628703445196152e-03,1.587319187819957733e-02,-1.391003723256289959e-03,1.742075383663177490e-02,3.625293029472231865e-03,3.410867881029844284e-03,1.062547671608626842e-03,1.905490295030176640e-03,-1.470402162522077560e-02,7.519863545894622803e-03,-7.655346300452947617e-03,1.669312361627817154e-03,-5.342688877135515213e-03,-6.950164097361266613e-04,-2.516067354008555412e-03,1.262309122830629349e-02,1.002958510071039200e-02,4.154341761022806168e-03,4.513621679507195950e-04,1.832676352933049202e-03,-3.829074092209339142e-03,5.662204697728157043e-03,5.389840342104434967e-03,7.494565797969698906e-04,-1.007949002087116241e-02
-5.486249551177024841e-02,-7.147000636905431747e-03,1.202324312180280685e-02,3.189105540513992310e-02,-3.847881779074668884e-02,-1.732678501866757870e-03,3.813104704022407532e-02,-4.975668154656887054e-03,6.008713692426681519e-02,-2.502531372010707855e-02,-1.690983027219772339e-02,-2.796317823231220245e-02,1.889741979539394379e-02,4.894834756851196289e-02,2.000591158866882324e-02,-2.587833628058433533e-02,3.171188384294509888e-02,-4.236883297562599182e-02,-4.304512590169906616e-02,-4.782558232545852661e-02,-6.406699866056442261e-02,4.146741330623626709e-02,3.649398311972618103e-02,3.161207586526870728e-02,-2.892637252807617188e-02,-1.660062000155448914e-02,4.656856507062911987e-02,-4.724961519241333008e-02,-2.685560286045074463e-02,-5.065715312957763672e-02,4.656585305929183960e-02,5.953775346279144287e-02,3.128559887409210205e-02,5.367854237556457520e-02,-7.474915590137243271e-03,-5.382529273629188538e-02,4.799711704254150391e-02,-3.752384707331657410e-02,4.347577318549156189e-02,-4.716177284717559814e-02
3.077522851526737213e-02,-1.159620005637407303e-03,2.678483433555811644e-04,3.331575915217399597e-02,-3.199110552668571472e-02,-1.449702121317386627e-02,2.573672682046890259e-02,-2.455404493957757950e-03,-3.434731066226959229e-02,2.043422870337963104e-02,-2.503583580255508423e-02,2.841383591294288635e-02,1.273146644234657288e-02,3.939598053693771362e-02,3.818195685744285583e-02,3.252993524074554443e-02,4.399729892611503601e-02,-3.423536941409111023e-02,1.551353652030229568e-02,-2.509695850312709808e-02,-4.477329924702644348e-02,5.914186127483844757e-03,2.635108120739459991e-02,-2.871228568255901337e-02,3.352423757314682007e-02,-1.812017336487770081e-02,3.158838301897048950e-02,-1.805435866117477417e-02,5.325714126229286194e-03,3.443847596645355225e-02,1.707090809941291809e-02,-2.547037729527801275e-04,-3.444722853600978851e-03,-2.119482681155204773e-02,2.508386597037315369e-02,-1.723170280456542969e-03,7.787334732711315155e-03,1.922522671520709991e-02,1.853991486132144928e-02,1.641772501170635223e-02
-1.918977312743663788e-02,-1.057893875986337662e-02,3.014857880771160126e-02,1.363175455480813980e-02,1.071776147000491619e-03,-1.010397635400295258e-02,3.959861025214195251e-02,-1.781351491808891296e-02,-3.102849982678890228e-02,-7.379633374512195587e-03,1.738591119647026062e-02,2.013356424868106842e-02,1.262609031982719898e-03,-1.419217791408300400e-02,-2.350403741002082825e-02,-7.016098126769065857e-03,3.398768976330757141e-02,1.381697040051221848e-02,-3.298058733344078064e-02,-5.739298090338706970e-02,-4.290822520852088928e-02,-2.316460758447647095e-02,7.607605308294296265e-03,2.134876698255538940e-02,5.576961860060691833e-02,5.516155809164047241e-02,-1.880365610122680664e-02,1.075189281255006790e-02,5.021607037633657455e-03,-1.407007221132516861e-02,-1.117410231381654739e-02,1.409026421606540680e-02,1.363191660493612289e-02,4.716704413294792175e-02,2.237128838896751404e-02,-3.152368217706680298e-02,2.660147100687026978e-02,1.213859673589468002e-02,-5.644932389259338379e-02,2.411025576293468475e-03
-1.354583818465471268e-02,1.769631914794445038e-02,1.803237386047840118e-02,-5.861957091838121414e-03,-9.188543190248310566e-04,3.017140319570899010e-03,-2.949427627027034760e-02,-4.413775634020566940e-03,5.601412151008844376e-03,3.019749186933040619e-03,1.948800869286060333e-02,1.062173862010240555e-02,1.547901891171932220e-02,4.058401100337505341e-03,-6.167219020426273346e-03,2.592070773243904114e-02,1.493155118077993393e-02,2.592596411705017090e-02,9.450662881135940552e-03,-2.548437193036079407e-02,2.420965582132339478e-02,-1.175625436007976532e-02,4.298054147511720657e-03,-2.090067416429519653e-02,1.600903831422328949e-02,2.599070221185684204e-02,9.882875718176364899e-03,-1.480268547311425209e-03,-7.502543157897889614e-04,1.132719311863183975e-02,7.241311017423868179e-03,1.032174751162528992e-02,2.129773842170834541e-03,1.443665940314531326e-02,2.383217774331569672e-02,-1.342288684099912643e-02,3.657461784314364195e-04,-4.607627633959054947e-03,3.031569719314575195e-02,-2.063209936022758484e-02
